digraph Tree {
node [shape=box, style="filled, rounded", color="black", fontname="helvetica"] ;
edge [fontname="helvetica"] ;
0 [label="relationship <= 0.5\ngini = 0.365\nsamples = 21815\nvalue = [16570, 5245]\nclass = <=50K", fillcolor="#eda978"] ;
1 [label="education.num <= 12.5\ngini = 0.495\nsamples = 8874\nvalue = [4901, 3973]\nclass = <=50K", fillcolor="#fae7da"] ;
0 -> 1 [labeldistance=2.5, labelangle=45, headlabel="True"] ;
2 [label="capital.gain <= 5095.5\ngini = 0.44\nsamples = 6194\nvalue = [4167, 2027]\nclass = <=50K", fillcolor="#f2be99"] ;
1 -> 2 ;
3 [label="capital.loss <= 1782.5\ngini = 0.416\nsamples = 5908\nvalue = [4164, 1744]\nclass = <=50K", fillcolor="#f0b68c"] ;
2 -> 3 ;
4 [label="education.num <= 7.5\ngini = 0.401\nsamples = 5681\nvalue = [4106, 1575]\nclass = <=50K", fillcolor="#efb185"] ;
3 -> 4 ;
5 [label="age <= 36.5\ngini = 0.157\nsamples = 922\nvalue = [843, 79]\nclass = <=50K", fillcolor="#e78d4c"] ;
4 -> 5 ;
6 [label="fnlwgt <= 29417.5\ngini = 0.059\nsamples = 263\nvalue = [255, 8]\nclass = <=50K", fillcolor="#e6853f"] ;
5 -> 6 ;
7 [label="occupation <= 7.5\ngini = 0.5\nsamples = 2\nvalue = [1, 1]\nclass = <=50K", fillcolor="#ffffff"] ;
6 -> 7 ;
8 [label="gini = 0.0\nsamples = 1\nvalue = [1, 0]\nclass = <=50K", fillcolor="#e58139"] ;
7 -> 8 ;
9 [label="gini = 0.0\nsamples = 1\nvalue = [0, 1]\nclass = >50K", fillcolor="#399de5"] ;
7 -> 9 ;
10 [label="occupation <= 1.0\ngini = 0.052\nsamples = 261\nvalue = [254, 7]\nclass = <=50K", fillcolor="#e6843e"] ;
6 -> 10 ;
11 [label="age <= 29.0\ngini = 0.444\nsamples = 3\nvalue = [2, 1]\nclass = <=50K", fillcolor="#f2c09c"] ;
10 -> 11 ;
12 [label="gini = 0.0\nsamples = 1\nvalue = [0, 1]\nclass = >50K", fillcolor="#399de5"] ;
11 -> 12 ;
13 [label="gini = 0.0\nsamples = 2\nvalue = [2, 0]\nclass = <=50K", fillcolor="#e58139"] ;
11 -> 13 ;
14 [label="workclass <= 4.5\ngini = 0.045\nsamples = 258\nvalue = [252, 6]\nclass = <=50K", fillcolor="#e6843e"] ;
10 -> 14 ;
15 [label="hours.per.week <= 67.5\ngini = 0.026\nsamples = 225\nvalue = [222, 3]\nclass = <=50K", fillcolor="#e5833c"] ;
14 -> 15 ;
16 [label="fnlwgt <= 90359.5\ngini = 0.018\nsamples = 221\nvalue = [219, 2]\nclass = <=50K", fillcolor="#e5823b"] ;
15 -> 16 ;
17 [label="fnlwgt <= 89656.5\ngini = 0.124\nsamples = 15\nvalue = [14, 1]\nclass = <=50K", fillcolor="#e78a47"] ;
16 -> 17 ;
18 [label="gini = 0.0\nsamples = 14\nvalue = [14, 0]\nclass = <=50K", fillcolor="#e58139"] ;
17 -> 18 ;
19 [label="gini = 0.0\nsamples = 1\nvalue = [0, 1]\nclass = >50K", fillcolor="#399de5"] ;
17 -> 19 ;
20 [label="fnlwgt <= 180797.5\ngini = 0.01\nsamples = 206\nvalue = [205, 1]\nclass = <=50K", fillcolor="#e5823a"] ;
16 -> 20 ;
21 [label="fnlwgt <= 178504.0\ngini = 0.031\nsamples = 63\nvalue = [62, 1]\nclass = <=50K", fillcolor="#e5833c"] ;
20 -> 21 ;
22 [label="gini = 0.0\nsamples = 62\nvalue = [62, 0]\nclass = <=50K", fillcolor="#e58139"] ;
21 -> 22 ;
23 [label="gini = 0.0\nsamples = 1\nvalue = [0, 1]\nclass = >50K", fillcolor="#399de5"] ;
21 -> 23 ;
24 [label="gini = 0.0\nsamples = 143\nvalue = [143, 0]\nclass = <=50K", fillcolor="#e58139"] ;
20 -> 24 ;
25 [label="education.num <= 6.5\ngini = 0.375\nsamples = 4\nvalue = [3, 1]\nclass = <=50K", fillcolor="#eeab7b"] ;
15 -> 25 ;
26 [label="gini = 0.0\nsamples = 3\nvalue = [3, 0]\nclass = <=50K", fillcolor="#e58139"] ;
25 -> 26 ;
27 [label="gini = 0.0\nsamples = 1\nvalue = [0, 1]\nclass = >50K", fillcolor="#399de5"] ;
25 -> 27 ;
28 [label="education.num <= 3.5\ngini = 0.165\nsamples = 33\nvalue = [30, 3]\nclass = <=50K", fillcolor="#e88e4d"] ;
14 -> 28 ;
29 [label="hours.per.week <= 45.0\ngini = 0.5\nsamples = 4\nvalue = [2, 2]\nclass = <=50K", fillcolor="#ffffff"] ;
28 -> 29 ;
30 [label="gini = 0.0\nsamples = 2\nvalue = [2, 0]\nclass = <=50K", fillcolor="#e58139"] ;
29 -> 30 ;
31 [label="gini = 0.0\nsamples = 2\nvalue = [0, 2]\nclass = >50K", fillcolor="#399de5"] ;
29 -> 31 ;
32 [label="hours.per.week <= 37.5\ngini = 0.067\nsamples = 29\nvalue = [28, 1]\nclass = <=50K", fillcolor="#e68640"] ;
28 -> 32 ;
33 [label="hours.per.week <= 32.5\ngini = 0.444\nsamples = 3\nvalue = [2, 1]\nclass = <=50K", fillcolor="#f2c09c"] ;
32 -> 33 ;
34 [label="gini = 0.0\nsamples = 2\nvalue = [2, 0]\nclass = <=50K", fillcolor="#e58139"] ;
33 -> 34 ;
35 [label="gini = 0.0\nsamples = 1\nvalue = [0, 1]\nclass = >50K", fillcolor="#399de5"] ;
33 -> 35 ;
36 [label="gini = 0.0\nsamples = 26\nvalue = [26, 0]\nclass = <=50K", fillcolor="#e58139"] ;
32 -> 36 ;
37 [label="capital.gain <= 4225.0\ngini = 0.192\nsamples = 659\nvalue = [588, 71]\nclass = <=50K", fillcolor="#e89051"] ;
5 -> 37 ;
38 [label="education.num <= 5.5\ngini = 0.186\nsamples = 654\nvalue = [586, 68]\nclass = <=50K", fillcolor="#e89050"] ;
37 -> 38 ;
39 [label="workclass <= 3.5\ngini = 0.139\nsamples = 386\nvalue = [357, 29]\nclass = <=50K", fillcolor="#e78b49"] ;
38 -> 39 ;
40 [label="fnlwgt <= 27552.0\ngini = 0.092\nsamples = 311\nvalue = [296, 15]\nclass = <=50K", fillcolor="#e68743"] ;
39 -> 40 ;
41 [label="education.num <= 4.5\ngini = 0.5\nsamples = 2\nvalue = [1, 1]\nclass = <=50K", fillcolor="#ffffff"] ;
40 -> 41 ;
42 [label="gini = 0.0\nsamples = 1\nvalue = [0, 1]\nclass = >50K", fillcolor="#399de5"] ;
41 -> 42 ;
43 [label="gini = 0.0\nsamples = 1\nvalue = [1, 0]\nclass = <=50K", fillcolor="#e58139"] ;
41 -> 43 ;
44 [label="fnlwgt <= 505027.0\ngini = 0.087\nsamples = 309\nvalue = [295, 14]\nclass = <=50K", fillcolor="#e68742"] ;
40 -> 44 ;
45 [label="hours.per.week <= 58.0\ngini = 0.081\nsamples = 307\nvalue = [294, 13]\nclass = <=50K", fillcolor="#e68742"] ;
44 -> 45 ;
46 [label="fnlwgt <= 30871.0\ngini = 0.071\nsamples = 298\nvalue = [287, 11]\nclass = <=50K", fillcolor="#e68641"] ;
45 -> 46 ;
47 [label="fnlwgt <= 30372.5\ngini = 0.32\nsamples = 5\nvalue = [4, 1]\nclass = <=50K", fillcolor="#eca06a"] ;
46 -> 47 ;
48 [label="gini = 0.0\nsamples = 4\nvalue = [4, 0]\nclass = <=50K", fillcolor="#e58139"] ;
47 -> 48 ;
49 [label="gini = 0.0\nsamples = 1\nvalue = [0, 1]\nclass = >50K", fillcolor="#399de5"] ;
47 -> 49 ;
50 [label="occupation <= 6.5\ngini = 0.066\nsamples = 293\nvalue = [283, 10]\nclass = <=50K", fillcolor="#e68540"] ;
46 -> 50 ;
51 [label="fnlwgt <= 385791.5\ngini = 0.103\nsamples = 165\nvalue = [156, 9]\nclass = <=50K", fillcolor="#e68844"] ;
50 -> 51 ;
52 [label="age <= 41.5\ngini = 0.086\nsamples = 155\nvalue = [148, 7]\nclass = <=50K", fillcolor="#e68742"] ;
51 -> 52 ;
53 [label="occupation <= 5.5\ngini = 0.219\nsamples = 24\nvalue = [21, 3]\nclass = <=50K", fillcolor="#e99355"] ;
52 -> 53 ;
54 [label="gini = 0.0\nsamples = 18\nvalue = [18, 0]\nclass = <=50K", fillcolor="#e58139"] ;
53 -> 54 ;
55 [label="fnlwgt <= 230434.5\ngini = 0.5\nsamples = 6\nvalue = [3, 3]\nclass = <=50K", fillcolor="#ffffff"] ;
53 -> 55 ;
56 [label="native.country <= 0.5\ngini = 0.375\nsamples = 4\nvalue = [3, 1]\nclass = <=50K", fillcolor="#eeab7b"] ;
55 -> 56 ;
57 [label="gini = 0.0\nsamples = 3\nvalue = [3, 0]\nclass = <=50K", fillcolor="#e58139"] ;
56 -> 57 ;
58 [label="gini = 0.0\nsamples = 1\nvalue = [0, 1]\nclass = >50K", fillcolor="#399de5"] ;
56 -> 58 ;
59 [label="gini = 0.0\nsamples = 2\nvalue = [0, 2]\nclass = >50K", fillcolor="#399de5"] ;
55 -> 59 ;
60 [label="occupation <= 3.5\ngini = 0.059\nsamples = 131\nvalue = [127, 4]\nclass = <=50K", fillcolor="#e6853f"] ;
52 -> 60 ;
61 [label="occupation <= 2.5\ngini = 0.124\nsamples = 60\nvalue = [56, 4]\nclass = <=50K", fillcolor="#e78a47"] ;
60 -> 61 ;
62 [label="race <= 0.5\ngini = 0.069\nsamples = 56\nvalue = [54, 2]\nclass = <=50K", fillcolor="#e68640"] ;
61 -> 62 ;
63 [label="fnlwgt <= 171407.0\ngini = 0.375\nsamples = 8\nvalue = [6, 2]\nclass = <=50K", fillcolor="#eeab7b"] ;
62 -> 63 ;
64 [label="age <= 62.5\ngini = 0.444\nsamples = 3\nvalue = [1, 2]\nclass = >50K", fillcolor="#9ccef2"] ;
63 -> 64 ;
65 [label="gini = 0.0\nsamples = 2\nvalue = [0, 2]\nclass = >50K", fillcolor="#399de5"] ;
64 -> 65 ;
66 [label="gini = 0.0\nsamples = 1\nvalue = [1, 0]\nclass = <=50K", fillcolor="#e58139"] ;
64 -> 66 ;
67 [label="gini = 0.0\nsamples = 5\nvalue = [5, 0]\nclass = <=50K", fillcolor="#e58139"] ;
63 -> 67 ;
68 [label="gini = 0.0\nsamples = 48\nvalue = [48, 0]\nclass = <=50K", fillcolor="#e58139"] ;
62 -> 68 ;
69 [label="age <= 53.5\ngini = 0.5\nsamples = 4\nvalue = [2, 2]\nclass = <=50K", fillcolor="#ffffff"] ;
61 -> 69 ;
70 [label="gini = 0.0\nsamples = 2\nvalue = [2, 0]\nclass = <=50K", fillcolor="#e58139"] ;
69 -> 70 ;
71 [label="gini = 0.0\nsamples = 2\nvalue = [0, 2]\nclass = >50K", fillcolor="#399de5"] ;
69 -> 71 ;
72 [label="gini = 0.0\nsamples = 71\nvalue = [71, 0]\nclass = <=50K", fillcolor="#e58139"] ;
60 -> 72 ;
73 [label="age <= 62.5\ngini = 0.32\nsamples = 10\nvalue = [8, 2]\nclass = <=50K", fillcolor="#eca06a"] ;
51 -> 73 ;
74 [label="native.country <= 0.5\ngini = 0.198\nsamples = 9\nvalue = [8, 1]\nclass = <=50K", fillcolor="#e89152"] ;
73 -> 74 ;
75 [label="gini = 0.0\nsamples = 6\nvalue = [6, 0]\nclass = <=50K", fillcolor="#e58139"] ;
74 -> 75 ;
76 [label="fnlwgt <= 445882.5\ngini = 0.444\nsamples = 3\nvalue = [2, 1]\nclass = <=50K", fillcolor="#f2c09c"] ;
74 -> 76 ;
77 [label="gini = 0.0\nsamples = 1\nvalue = [0, 1]\nclass = >50K", fillcolor="#399de5"] ;
76 -> 77 ;
78 [label="gini = 0.0\nsamples = 2\nvalue = [2, 0]\nclass = <=50K", fillcolor="#e58139"] ;
76 -> 78 ;
79 [label="gini = 0.0\nsamples = 1\nvalue = [0, 1]\nclass = >50K", fillcolor="#399de5"] ;
73 -> 79 ;
80 [label="occupation <= 10.5\ngini = 0.016\nsamples = 128\nvalue = [127, 1]\nclass = <=50K", fillcolor="#e5823b"] ;
50 -> 80 ;
81 [label="gini = 0.0\nsamples = 85\nvalue = [85, 0]\nclass = <=50K", fillcolor="#e58139"] ;
80 -> 81 ;
82 [label="occupation <= 12.0\ngini = 0.045\nsamples = 43\nvalue = [42, 1]\nclass = <=50K", fillcolor="#e6843e"] ;
80 -> 82 ;
83 [label="fnlwgt <= 193312.5\ngini = 0.219\nsamples = 8\nvalue = [7, 1]\nclass = <=50K", fillcolor="#e99355"] ;
82 -> 83 ;
84 [label="education.num <= 4.0\ngini = 0.5\nsamples = 2\nvalue = [1, 1]\nclass = <=50K", fillcolor="#ffffff"] ;
83 -> 84 ;
85 [label="gini = 0.0\nsamples = 1\nvalue = [0, 1]\nclass = >50K", fillcolor="#399de5"] ;
84 -> 85 ;
86 [label="gini = 0.0\nsamples = 1\nvalue = [1, 0]\nclass = <=50K", fillcolor="#e58139"] ;
84 -> 86 ;
87 [label="gini = 0.0\nsamples = 6\nvalue = [6, 0]\nclass = <=50K", fillcolor="#e58139"] ;
83 -> 87 ;
88 [label="gini = 0.0\nsamples = 35\nvalue = [35, 0]\nclass = <=50K", fillcolor="#e58139"] ;
82 -> 88 ;
89 [label="age <= 57.0\ngini = 0.346\nsamples = 9\nvalue = [7, 2]\nclass = <=50K", fillcolor="#eca572"] ;
45 -> 89 ;
90 [label="gini = 0.0\nsamples = 7\nvalue = [7, 0]\nclass = <=50K", fillcolor="#e58139"] ;
89 -> 90 ;
91 [label="gini = 0.0\nsamples = 2\nvalue = [0, 2]\nclass = >50K", fillcolor="#399de5"] ;
89 -> 91 ;
92 [label="age <= 51.0\ngini = 0.5\nsamples = 2\nvalue = [1, 1]\nclass = <=50K", fillcolor="#ffffff"] ;
44 -> 92 ;
93 [label="gini = 0.0\nsamples = 1\nvalue = [1, 0]\nclass = <=50K", fillcolor="#e58139"] ;
92 -> 93 ;
94 [label="gini = 0.0\nsamples = 1\nvalue = [0, 1]\nclass = >50K", fillcolor="#399de5"] ;
92 -> 94 ;
95 [label="workclass <= 4.5\ngini = 0.304\nsamples = 75\nvalue = [61, 14]\nclass = <=50K", fillcolor="#eb9e66"] ;
39 -> 95 ;
96 [label="occupation <= 7.5\ngini = 0.496\nsamples = 11\nvalue = [6, 5]\nclass = <=50K", fillcolor="#fbeade"] ;
95 -> 96 ;
97 [label="fnlwgt <= 129309.0\ngini = 0.444\nsamples = 6\nvalue = [2, 4]\nclass = >50K", fillcolor="#9ccef2"] ;
96 -> 97 ;
98 [label="gini = 0.0\nsamples = 3\nvalue = [0, 3]\nclass = >50K", fillcolor="#399de5"] ;
97 -> 98 ;
99 [label="age <= 46.0\ngini = 0.444\nsamples = 3\nvalue = [2, 1]\nclass = <=50K", fillcolor="#f2c09c"] ;
97 -> 99 ;
100 [label="gini = 0.0\nsamples = 1\nvalue = [0, 1]\nclass = >50K", fillcolor="#399de5"] ;
99 -> 100 ;
101 [label="gini = 0.0\nsamples = 2\nvalue = [2, 0]\nclass = <=50K", fillcolor="#e58139"] ;
99 -> 101 ;
102 [label="fnlwgt <= 186204.0\ngini = 0.32\nsamples = 5\nvalue = [4, 1]\nclass = <=50K", fillcolor="#eca06a"] ;
96 -> 102 ;
103 [label="gini = 0.0\nsamples = 3\nvalue = [3, 0]\nclass = <=50K", fillcolor="#e58139"] ;
102 -> 103 ;
104 [label="age <= 50.0\ngini = 0.5\nsamples = 2\nvalue = [1, 1]\nclass = <=50K", fillcolor="#ffffff"] ;
102 -> 104 ;
105 [label="gini = 0.0\nsamples = 1\nvalue = [1, 0]\nclass = <=50K", fillcolor="#e58139"] ;
104 -> 105 ;
106 [label="gini = 0.0\nsamples = 1\nvalue = [0, 1]\nclass = >50K", fillcolor="#399de5"] ;
104 -> 106 ;
107 [label="hours.per.week <= 52.5\ngini = 0.242\nsamples = 64\nvalue = [55, 9]\nclass = <=50K", fillcolor="#e99659"] ;
95 -> 107 ;
108 [label="age <= 41.0\ngini = 0.177\nsamples = 51\nvalue = [46, 5]\nclass = <=50K", fillcolor="#e88f4f"] ;
107 -> 108 ;
109 [label="hours.per.week <= 37.5\ngini = 0.5\nsamples = 4\nvalue = [2, 2]\nclass = <=50K", fillcolor="#ffffff"] ;
108 -> 109 ;
110 [label="gini = 0.0\nsamples = 1\nvalue = [0, 1]\nclass = >50K", fillcolor="#399de5"] ;
109 -> 110 ;
111 [label="age <= 39.5\ngini = 0.444\nsamples = 3\nvalue = [2, 1]\nclass = <=50K", fillcolor="#f2c09c"] ;
109 -> 111 ;
112 [label="gini = 0.0\nsamples = 2\nvalue = [2, 0]\nclass = <=50K", fillcolor="#e58139"] ;
111 -> 112 ;
113 [label="gini = 0.0\nsamples = 1\nvalue = [0, 1]\nclass = >50K", fillcolor="#399de5"] ;
111 -> 113 ;
114 [label="fnlwgt <= 46883.0\ngini = 0.12\nsamples = 47\nvalue = [44, 3]\nclass = <=50K", fillcolor="#e78a46"] ;
108 -> 114 ;
115 [label="age <= 60.0\ngini = 0.444\nsamples = 3\nvalue = [2, 1]\nclass = <=50K", fillcolor="#f2c09c"] ;
114 -> 115 ;
116 [label="gini = 0.0\nsamples = 1\nvalue = [0, 1]\nclass = >50K", fillcolor="#399de5"] ;
115 -> 116 ;
117 [label="gini = 0.0\nsamples = 2\nvalue = [2, 0]\nclass = <=50K", fillcolor="#e58139"] ;
115 -> 117 ;
118 [label="fnlwgt <= 273308.0\ngini = 0.087\nsamples = 44\nvalue = [42, 2]\nclass = <=50K", fillcolor="#e68742"] ;
114 -> 118 ;
119 [label="occupation <= 9.0\ngini = 0.049\nsamples = 40\nvalue = [39, 1]\nclass = <=50K", fillcolor="#e6843e"] ;
118 -> 119 ;
120 [label="gini = 0.0\nsamples = 29\nvalue = [29, 0]\nclass = <=50K", fillcolor="#e58139"] ;
119 -> 120 ;
121 [label="fnlwgt <= 183592.0\ngini = 0.165\nsamples = 11\nvalue = [10, 1]\nclass = <=50K", fillcolor="#e88e4d"] ;
119 -> 121 ;
122 [label="gini = 0.0\nsamples = 8\nvalue = [8, 0]\nclass = <=50K", fillcolor="#e58139"] ;
121 -> 122 ;
123 [label="fnlwgt <= 208557.5\ngini = 0.444\nsamples = 3\nvalue = [2, 1]\nclass = <=50K", fillcolor="#f2c09c"] ;
121 -> 123 ;
124 [label="gini = 0.0\nsamples = 1\nvalue = [0, 1]\nclass = >50K", fillcolor="#399de5"] ;
123 -> 124 ;
125 [label="gini = 0.0\nsamples = 2\nvalue = [2, 0]\nclass = <=50K", fillcolor="#e58139"] ;
123 -> 125 ;
126 [label="age <= 64.5\ngini = 0.375\nsamples = 4\nvalue = [3, 1]\nclass = <=50K", fillcolor="#eeab7b"] ;
118 -> 126 ;
127 [label="gini = 0.0\nsamples = 3\nvalue = [3, 0]\nclass = <=50K", fillcolor="#e58139"] ;
126 -> 127 ;
128 [label="gini = 0.0\nsamples = 1\nvalue = [0, 1]\nclass = >50K", fillcolor="#399de5"] ;
126 -> 128 ;
129 [label="fnlwgt <= 111547.5\ngini = 0.426\nsamples = 13\nvalue = [9, 4]\nclass = <=50K", fillcolor="#f1b991"] ;
107 -> 129 ;
130 [label="gini = 0.0\nsamples = 5\nvalue = [5, 0]\nclass = <=50K", fillcolor="#e58139"] ;
129 -> 130 ;
131 [label="hours.per.week <= 65.0\ngini = 0.5\nsamples = 8\nvalue = [4, 4]\nclass = <=50K", fillcolor="#ffffff"] ;
129 -> 131 ;
132 [label="age <= 41.5\ngini = 0.32\nsamples = 5\nvalue = [1, 4]\nclass = >50K", fillcolor="#6ab6ec"] ;
131 -> 132 ;
133 [label="gini = 0.0\nsamples = 1\nvalue = [1, 0]\nclass = <=50K", fillcolor="#e58139"] ;
132 -> 133 ;
134 [label="gini = 0.0\nsamples = 4\nvalue = [0, 4]\nclass = >50K", fillcolor="#399de5"] ;
132 -> 134 ;
135 [label="gini = 0.0\nsamples = 3\nvalue = [3, 0]\nclass = <=50K", fillcolor="#e58139"] ;
131 -> 135 ;
136 [label="fnlwgt <= 367225.5\ngini = 0.249\nsamples = 268\nvalue = [229, 39]\nclass = <=50K", fillcolor="#e9965b"] ;
38 -> 136 ;
137 [label="occupation <= 12.0\ngini = 0.225\nsamples = 256\nvalue = [223, 33]\nclass = <=50K", fillcolor="#e99456"] ;
136 -> 137 ;
138 [label="age <= 38.5\ngini = 0.185\nsamples = 204\nvalue = [183, 21]\nclass = <=50K", fillcolor="#e88f50"] ;
137 -> 138 ;
139 [label="occupation <= 3.5\ngini = 0.48\nsamples = 10\nvalue = [6, 4]\nclass = <=50K", fillcolor="#f6d5bd"] ;
138 -> 139 ;
140 [label="fnlwgt <= 127664.5\ngini = 0.278\nsamples = 6\nvalue = [5, 1]\nclass = <=50K", fillcolor="#ea9a61"] ;
139 -> 140 ;
141 [label="gini = 0.0\nsamples = 1\nvalue = [0, 1]\nclass = >50K", fillcolor="#399de5"] ;
140 -> 141 ;
142 [label="gini = 0.0\nsamples = 5\nvalue = [5, 0]\nclass = <=50K", fillcolor="#e58139"] ;
140 -> 142 ;
143 [label="native.country <= 0.5\ngini = 0.375\nsamples = 4\nvalue = [1, 3]\nclass = >50K", fillcolor="#7bbeee"] ;
139 -> 143 ;
144 [label="gini = 0.0\nsamples = 1\nvalue = [1, 0]\nclass = <=50K", fillcolor="#e58139"] ;
143 -> 144 ;
145 [label="gini = 0.0\nsamples = 3\nvalue = [0, 3]\nclass = >50K", fillcolor="#399de5"] ;
143 -> 145 ;
146 [label="age <= 51.5\ngini = 0.16\nsamples = 194\nvalue = [177, 17]\nclass = <=50K", fillcolor="#e78d4c"] ;
138 -> 146 ;
147 [label="age <= 49.5\ngini = 0.245\nsamples = 77\nvalue = [66, 11]\nclass = <=50K", fillcolor="#e9965a"] ;
146 -> 147 ;
148 [label="fnlwgt <= 177776.0\ngini = 0.17\nsamples = 64\nvalue = [58, 6]\nclass = <=50K", fillcolor="#e88e4d"] ;
147 -> 148 ;
149 [label="age <= 47.5\ngini = 0.061\nsamples = 32\nvalue = [31, 1]\nclass = <=50K", fillcolor="#e6853f"] ;
148 -> 149 ;
150 [label="gini = 0.0\nsamples = 23\nvalue = [23, 0]\nclass = <=50K", fillcolor="#e58139"] ;
149 -> 150 ;
151 [label="occupation <= 3.5\ngini = 0.198\nsamples = 9\nvalue = [8, 1]\nclass = <=50K", fillcolor="#e89152"] ;
149 -> 151 ;
152 [label="hours.per.week <= 42.5\ngini = 0.444\nsamples = 3\nvalue = [2, 1]\nclass = <=50K", fillcolor="#f2c09c"] ;
151 -> 152 ;
153 [label="gini = 0.0\nsamples = 2\nvalue = [2, 0]\nclass = <=50K", fillcolor="#e58139"] ;
152 -> 153 ;
154 [label="gini = 0.0\nsamples = 1\nvalue = [0, 1]\nclass = >50K", fillcolor="#399de5"] ;
152 -> 154 ;
155 [label="gini = 0.0\nsamples = 6\nvalue = [6, 0]\nclass = <=50K", fillcolor="#e58139"] ;
151 -> 155 ;
156 [label="fnlwgt <= 188796.5\ngini = 0.264\nsamples = 32\nvalue = [27, 5]\nclass = <=50K", fillcolor="#ea985e"] ;
148 -> 156 ;
157 [label="fnlwgt <= 184878.5\ngini = 0.48\nsamples = 5\nvalue = [2, 3]\nclass = >50K", fillcolor="#bddef6"] ;
156 -> 157 ;
158 [label="fnlwgt <= 179393.5\ngini = 0.444\nsamples = 3\nvalue = [2, 1]\nclass = <=50K", fillcolor="#f2c09c"] ;
157 -> 158 ;
159 [label="gini = 0.0\nsamples = 1\nvalue = [0, 1]\nclass = >50K", fillcolor="#399de5"] ;
158 -> 159 ;
160 [label="gini = 0.0\nsamples = 2\nvalue = [2, 0]\nclass = <=50K", fillcolor="#e58139"] ;
158 -> 160 ;
161 [label="gini = 0.0\nsamples = 2\nvalue = [0, 2]\nclass = >50K", fillcolor="#399de5"] ;
157 -> 161 ;
162 [label="occupation <= 1.0\ngini = 0.137\nsamples = 27\nvalue = [25, 2]\nclass = <=50K", fillcolor="#e78b49"] ;
156 -> 162 ;
163 [label="age <= 46.5\ngini = 0.5\nsamples = 2\nvalue = [1, 1]\nclass = <=50K", fillcolor="#ffffff"] ;
162 -> 163 ;
164 [label="gini = 0.0\nsamples = 1\nvalue = [0, 1]\nclass = >50K", fillcolor="#399de5"] ;
163 -> 164 ;
165 [label="gini = 0.0\nsamples = 1\nvalue = [1, 0]\nclass = <=50K", fillcolor="#e58139"] ;
163 -> 165 ;
166 [label="fnlwgt <= 337414.5\ngini = 0.077\nsamples = 25\nvalue = [24, 1]\nclass = <=50K", fillcolor="#e68641"] ;
162 -> 166 ;
167 [label="gini = 0.0\nsamples = 22\nvalue = [22, 0]\nclass = <=50K", fillcolor="#e58139"] ;
166 -> 167 ;
168 [label="fnlwgt <= 344102.0\ngini = 0.444\nsamples = 3\nvalue = [2, 1]\nclass = <=50K", fillcolor="#f2c09c"] ;
166 -> 168 ;
169 [label="gini = 0.0\nsamples = 1\nvalue = [0, 1]\nclass = >50K", fillcolor="#399de5"] ;
168 -> 169 ;
170 [label="gini = 0.0\nsamples = 2\nvalue = [2, 0]\nclass = <=50K", fillcolor="#e58139"] ;
168 -> 170 ;
171 [label="fnlwgt <= 226321.0\ngini = 0.473\nsamples = 13\nvalue = [8, 5]\nclass = <=50K", fillcolor="#f5d0b5"] ;
147 -> 171 ;
172 [label="occupation <= 5.0\ngini = 0.494\nsamples = 9\nvalue = [4, 5]\nclass = >50K", fillcolor="#d7ebfa"] ;
171 -> 172 ;
173 [label="hours.per.week <= 39.0\ngini = 0.408\nsamples = 7\nvalue = [2, 5]\nclass = >50K", fillcolor="#88c4ef"] ;
172 -> 173 ;
174 [label="gini = 0.0\nsamples = 1\nvalue = [1, 0]\nclass = <=50K", fillcolor="#e58139"] ;
173 -> 174 ;
175 [label="age <= 50.5\ngini = 0.278\nsamples = 6\nvalue = [1, 5]\nclass = >50K", fillcolor="#61b1ea"] ;
173 -> 175 ;
176 [label="fnlwgt <= 141172.5\ngini = 0.444\nsamples = 3\nvalue = [1, 2]\nclass = >50K", fillcolor="#9ccef2"] ;
175 -> 176 ;
177 [label="gini = 0.0\nsamples = 1\nvalue = [1, 0]\nclass = <=50K", fillcolor="#e58139"] ;
176 -> 177 ;
178 [label="gini = 0.0\nsamples = 2\nvalue = [0, 2]\nclass = >50K", fillcolor="#399de5"] ;
176 -> 178 ;
179 [label="gini = 0.0\nsamples = 3\nvalue = [0, 3]\nclass = >50K", fillcolor="#399de5"] ;
175 -> 179 ;
180 [label="gini = 0.0\nsamples = 2\nvalue = [2, 0]\nclass = <=50K", fillcolor="#e58139"] ;
172 -> 180 ;
181 [label="gini = 0.0\nsamples = 4\nvalue = [4, 0]\nclass = <=50K", fillcolor="#e58139"] ;
171 -> 181 ;
182 [label="native.country <= 0.5\ngini = 0.097\nsamples = 117\nvalue = [111, 6]\nclass = <=50K", fillcolor="#e68844"] ;
146 -> 182 ;
183 [label="occupation <= 6.5\ngini = 0.5\nsamples = 2\nvalue = [1, 1]\nclass = <=50K", fillcolor="#ffffff"] ;
182 -> 183 ;
184 [label="gini = 0.0\nsamples = 1\nvalue = [1, 0]\nclass = <=50K", fillcolor="#e58139"] ;
183 -> 184 ;
185 [label="gini = 0.0\nsamples = 1\nvalue = [0, 1]\nclass = >50K", fillcolor="#399de5"] ;
183 -> 185 ;
186 [label="hours.per.week <= 49.0\ngini = 0.083\nsamples = 115\nvalue = [110, 5]\nclass = <=50K", fillcolor="#e68742"] ;
182 -> 186 ;
187 [label="fnlwgt <= 39761.0\ngini = 0.057\nsamples = 102\nvalue = [99, 3]\nclass = <=50K", fillcolor="#e6853f"] ;
186 -> 187 ;
188 [label="fnlwgt <= 36172.0\ngini = 0.278\nsamples = 6\nvalue = [5, 1]\nclass = <=50K", fillcolor="#ea9a61"] ;
187 -> 188 ;
189 [label="gini = 0.0\nsamples = 5\nvalue = [5, 0]\nclass = <=50K", fillcolor="#e58139"] ;
188 -> 189 ;
190 [label="gini = 0.0\nsamples = 1\nvalue = [0, 1]\nclass = >50K", fillcolor="#399de5"] ;
188 -> 190 ;
191 [label="occupation <= 2.5\ngini = 0.041\nsamples = 96\nvalue = [94, 2]\nclass = <=50K", fillcolor="#e6843d"] ;
187 -> 191 ;
192 [label="age <= 63.5\ngini = 0.111\nsamples = 34\nvalue = [32, 2]\nclass = <=50K", fillcolor="#e78945"] ;
191 -> 192 ;
193 [label="age <= 57.5\ngini = 0.064\nsamples = 30\nvalue = [29, 1]\nclass = <=50K", fillcolor="#e68540"] ;
192 -> 193 ;
194 [label="gini = 0.0\nsamples = 19\nvalue = [19, 0]\nclass = <=50K", fillcolor="#e58139"] ;
193 -> 194 ;
195 [label="fnlwgt <= 154387.5\ngini = 0.165\nsamples = 11\nvalue = [10, 1]\nclass = <=50K", fillcolor="#e88e4d"] ;
193 -> 195 ;
196 [label="gini = 0.0\nsamples = 7\nvalue = [7, 0]\nclass = <=50K", fillcolor="#e58139"] ;
195 -> 196 ;
197 [label="fnlwgt <= 170952.0\ngini = 0.375\nsamples = 4\nvalue = [3, 1]\nclass = <=50K", fillcolor="#eeab7b"] ;
195 -> 197 ;
198 [label="gini = 0.0\nsamples = 1\nvalue = [0, 1]\nclass = >50K", fillcolor="#399de5"] ;
197 -> 198 ;
199 [label="gini = 0.0\nsamples = 3\nvalue = [3, 0]\nclass = <=50K", fillcolor="#e58139"] ;
197 -> 199 ;
200 [label="workclass <= 2.0\ngini = 0.375\nsamples = 4\nvalue = [3, 1]\nclass = <=50K", fillcolor="#eeab7b"] ;
192 -> 200 ;
201 [label="gini = 0.0\nsamples = 1\nvalue = [0, 1]\nclass = >50K", fillcolor="#399de5"] ;
200 -> 201 ;
202 [label="gini = 0.0\nsamples = 3\nvalue = [3, 0]\nclass = <=50K", fillcolor="#e58139"] ;
200 -> 202 ;
203 [label="gini = 0.0\nsamples = 62\nvalue = [62, 0]\nclass = <=50K", fillcolor="#e58139"] ;
191 -> 203 ;
204 [label="hours.per.week <= 58.0\ngini = 0.26\nsamples = 13\nvalue = [11, 2]\nclass = <=50K", fillcolor="#ea985d"] ;
186 -> 204 ;
205 [label="age <= 55.0\ngini = 0.444\nsamples = 6\nvalue = [4, 2]\nclass = <=50K", fillcolor="#f2c09c"] ;
204 -> 205 ;
206 [label="gini = 0.0\nsamples = 1\nvalue = [0, 1]\nclass = >50K", fillcolor="#399de5"] ;
205 -> 206 ;
207 [label="occupation <= 8.0\ngini = 0.32\nsamples = 5\nvalue = [4, 1]\nclass = <=50K", fillcolor="#eca06a"] ;
205 -> 207 ;
208 [label="gini = 0.0\nsamples = 4\nvalue = [4, 0]\nclass = <=50K", fillcolor="#e58139"] ;
207 -> 208 ;
209 [label="gini = 0.0\nsamples = 1\nvalue = [0, 1]\nclass = >50K", fillcolor="#399de5"] ;
207 -> 209 ;
210 [label="gini = 0.0\nsamples = 7\nvalue = [7, 0]\nclass = <=50K", fillcolor="#e58139"] ;
204 -> 210 ;
211 [label="age <= 47.0\ngini = 0.355\nsamples = 52\nvalue = [40, 12]\nclass = <=50K", fillcolor="#eda774"] ;
137 -> 211 ;
212 [label="race <= 0.5\ngini = 0.111\nsamples = 17\nvalue = [16, 1]\nclass = <=50K", fillcolor="#e78945"] ;
211 -> 212 ;
213 [label="age <= 41.5\ngini = 0.444\nsamples = 3\nvalue = [2, 1]\nclass = <=50K", fillcolor="#f2c09c"] ;
212 -> 213 ;
214 [label="gini = 0.0\nsamples = 1\nvalue = [0, 1]\nclass = >50K", fillcolor="#399de5"] ;
213 -> 214 ;
215 [label="gini = 0.0\nsamples = 2\nvalue = [2, 0]\nclass = <=50K", fillcolor="#e58139"] ;
213 -> 215 ;
216 [label="gini = 0.0\nsamples = 14\nvalue = [14, 0]\nclass = <=50K", fillcolor="#e58139"] ;
212 -> 216 ;
217 [label="age <= 53.5\ngini = 0.431\nsamples = 35\nvalue = [24, 11]\nclass = <=50K", fillcolor="#f1bb94"] ;
211 -> 217 ;
218 [label="education.num <= 6.5\ngini = 0.469\nsamples = 8\nvalue = [3, 5]\nclass = >50K", fillcolor="#b0d8f5"] ;
217 -> 218 ;
219 [label="gini = 0.0\nsamples = 3\nvalue = [0, 3]\nclass = >50K", fillcolor="#399de5"] ;
218 -> 219 ;
220 [label="age <= 48.5\ngini = 0.48\nsamples = 5\nvalue = [3, 2]\nclass = <=50K", fillcolor="#f6d5bd"] ;
218 -> 220 ;
221 [label="gini = 0.0\nsamples = 1\nvalue = [0, 1]\nclass = >50K", fillcolor="#399de5"] ;
220 -> 221 ;
222 [label="age <= 49.5\ngini = 0.375\nsamples = 4\nvalue = [3, 1]\nclass = <=50K", fillcolor="#eeab7b"] ;
220 -> 222 ;
223 [label="gini = 0.0\nsamples = 2\nvalue = [2, 0]\nclass = <=50K", fillcolor="#e58139"] ;
222 -> 223 ;
224 [label="fnlwgt <= 174540.0\ngini = 0.5\nsamples = 2\nvalue = [1, 1]\nclass = <=50K", fillcolor="#ffffff"] ;
222 -> 224 ;
225 [label="gini = 0.0\nsamples = 1\nvalue = [0, 1]\nclass = >50K", fillcolor="#399de5"] ;
224 -> 225 ;
226 [label="gini = 0.0\nsamples = 1\nvalue = [1, 0]\nclass = <=50K", fillcolor="#e58139"] ;
224 -> 226 ;
227 [label="capital.loss <= 742.5\ngini = 0.346\nsamples = 27\nvalue = [21, 6]\nclass = <=50K", fillcolor="#eca572"] ;
217 -> 227 ;
228 [label="fnlwgt <= 32034.5\ngini = 0.311\nsamples = 26\nvalue = [21, 5]\nclass = <=50K", fillcolor="#eb9f68"] ;
227 -> 228 ;
229 [label="gini = 0.0\nsamples = 1\nvalue = [0, 1]\nclass = >50K", fillcolor="#399de5"] ;
228 -> 229 ;
230 [label="age <= 58.5\ngini = 0.269\nsamples = 25\nvalue = [21, 4]\nclass = <=50K", fillcolor="#ea995f"] ;
228 -> 230 ;
231 [label="gini = 0.0\nsamples = 8\nvalue = [8, 0]\nclass = <=50K", fillcolor="#e58139"] ;
230 -> 231 ;
232 [label="workclass <= 3.5\ngini = 0.36\nsamples = 17\nvalue = [13, 4]\nclass = <=50K", fillcolor="#eda876"] ;
230 -> 232 ;
233 [label="hours.per.week <= 45.0\ngini = 0.305\nsamples = 16\nvalue = [13, 3]\nclass = <=50K", fillcolor="#eb9e67"] ;
232 -> 233 ;
234 [label="fnlwgt <= 242681.0\ngini = 0.231\nsamples = 15\nvalue = [13, 2]\nclass = <=50K", fillcolor="#e99457"] ;
233 -> 234 ;
235 [label="fnlwgt <= 180107.0\ngini = 0.142\nsamples = 13\nvalue = [12, 1]\nclass = <=50K", fillcolor="#e78c49"] ;
234 -> 235 ;
236 [label="gini = 0.0\nsamples = 7\nvalue = [7, 0]\nclass = <=50K", fillcolor="#e58139"] ;
235 -> 236 ;
237 [label="fnlwgt <= 181878.0\ngini = 0.278\nsamples = 6\nvalue = [5, 1]\nclass = <=50K", fillcolor="#ea9a61"] ;
235 -> 237 ;
238 [label="gini = 0.0\nsamples = 1\nvalue = [0, 1]\nclass = >50K", fillcolor="#399de5"] ;
237 -> 238 ;
239 [label="gini = 0.0\nsamples = 5\nvalue = [5, 0]\nclass = <=50K", fillcolor="#e58139"] ;
237 -> 239 ;
240 [label="native.country <= 0.5\ngini = 0.5\nsamples = 2\nvalue = [1, 1]\nclass = <=50K", fillcolor="#ffffff"] ;
234 -> 240 ;
241 [label="gini = 0.0\nsamples = 1\nvalue = [1, 0]\nclass = <=50K", fillcolor="#e58139"] ;
240 -> 241 ;
242 [label="gini = 0.0\nsamples = 1\nvalue = [0, 1]\nclass = >50K", fillcolor="#399de5"] ;
240 -> 242 ;
243 [label="gini = 0.0\nsamples = 1\nvalue = [0, 1]\nclass = >50K", fillcolor="#399de5"] ;
233 -> 243 ;
244 [label="gini = 0.0\nsamples = 1\nvalue = [0, 1]\nclass = >50K", fillcolor="#399de5"] ;
232 -> 244 ;
245 [label="gini = 0.0\nsamples = 1\nvalue = [0, 1]\nclass = >50K", fillcolor="#399de5"] ;
227 -> 245 ;
246 [label="fnlwgt <= 464920.5\ngini = 0.5\nsamples = 12\nvalue = [6, 6]\nclass = <=50K", fillcolor="#ffffff"] ;
136 -> 246 ;
247 [label="fnlwgt <= 381294.5\ngini = 0.408\nsamples = 7\nvalue = [2, 5]\nclass = >50K", fillcolor="#88c4ef"] ;
246 -> 247 ;
248 [label="occupation <= 12.0\ngini = 0.444\nsamples = 3\nvalue = [2, 1]\nclass = <=50K", fillcolor="#f2c09c"] ;
247 -> 248 ;
249 [label="gini = 0.0\nsamples = 2\nvalue = [2, 0]\nclass = <=50K", fillcolor="#e58139"] ;
248 -> 249 ;
250 [label="gini = 0.0\nsamples = 1\nvalue = [0, 1]\nclass = >50K", fillcolor="#399de5"] ;
248 -> 250 ;
251 [label="gini = 0.0\nsamples = 4\nvalue = [0, 4]\nclass = >50K", fillcolor="#399de5"] ;
247 -> 251 ;
252 [label="workclass <= 4.5\ngini = 0.32\nsamples = 5\nvalue = [4, 1]\nclass = <=50K", fillcolor="#eca06a"] ;
246 -> 252 ;
253 [label="gini = 0.0\nsamples = 4\nvalue = [4, 0]\nclass = <=50K", fillcolor="#e58139"] ;
252 -> 253 ;
254 [label="gini = 0.0\nsamples = 1\nvalue = [0, 1]\nclass = >50K", fillcolor="#399de5"] ;
252 -> 254 ;
255 [label="fnlwgt <= 136440.5\ngini = 0.48\nsamples = 5\nvalue = [2, 3]\nclass = >50K", fillcolor="#bddef6"] ;
37 -> 255 ;
256 [label="occupation <= 8.5\ngini = 0.444\nsamples = 3\nvalue = [2, 1]\nclass = <=50K", fillcolor="#f2c09c"] ;
255 -> 256 ;
257 [label="gini = 0.0\nsamples = 2\nvalue = [2, 0]\nclass = <=50K", fillcolor="#e58139"] ;
256 -> 257 ;
258 [label="gini = 0.0\nsamples = 1\nvalue = [0, 1]\nclass = >50K", fillcolor="#399de5"] ;
256 -> 258 ;
259 [label="gini = 0.0\nsamples = 2\nvalue = [0, 2]\nclass = >50K", fillcolor="#399de5"] ;
255 -> 259 ;
260 [label="age <= 35.5\ngini = 0.431\nsamples = 4759\nvalue = [3263, 1496]\nclass = <=50K", fillcolor="#f1bb94"] ;
4 -> 260 ;
261 [label="age <= 26.5\ngini = 0.32\nsamples = 1547\nvalue = [1238, 309]\nclass = <=50K", fillcolor="#eba06a"] ;
260 -> 261 ;
262 [label="occupation <= 12.5\ngini = 0.159\nsamples = 310\nvalue = [283, 27]\nclass = <=50K", fillcolor="#e78d4c"] ;
261 -> 262 ;
263 [label="workclass <= 2.0\ngini = 0.12\nsamples = 282\nvalue = [264, 18]\nclass = <=50K", fillcolor="#e78a46"] ;
262 -> 263 ;
264 [label="hours.per.week <= 42.5\ngini = 0.43\nsamples = 16\nvalue = [11, 5]\nclass = <=50K", fillcolor="#f1ba93"] ;
263 -> 264 ;
265 [label="capital.gain <= 1551.5\ngini = 0.26\nsamples = 13\nvalue = [11, 2]\nclass = <=50K", fillcolor="#ea985d"] ;
264 -> 265 ;
266 [label="fnlwgt <= 323347.0\ngini = 0.153\nsamples = 12\nvalue = [11, 1]\nclass = <=50K", fillcolor="#e78c4b"] ;
265 -> 266 ;
267 [label="gini = 0.0\nsamples = 9\nvalue = [9, 0]\nclass = <=50K", fillcolor="#e58139"] ;
266 -> 267 ;
268 [label="race <= 0.5\ngini = 0.444\nsamples = 3\nvalue = [2, 1]\nclass = <=50K", fillcolor="#f2c09c"] ;
266 -> 268 ;
269 [label="gini = 0.0\nsamples = 2\nvalue = [2, 0]\nclass = <=50K", fillcolor="#e58139"] ;
268 -> 269 ;
270 [label="gini = 0.0\nsamples = 1\nvalue = [0, 1]\nclass = >50K", fillcolor="#399de5"] ;
268 -> 270 ;
271 [label="gini = 0.0\nsamples = 1\nvalue = [0, 1]\nclass = >50K", fillcolor="#399de5"] ;
265 -> 271 ;
272 [label="gini = 0.0\nsamples = 3\nvalue = [0, 3]\nclass = >50K", fillcolor="#399de5"] ;
264 -> 272 ;
273 [label="age <= 24.5\ngini = 0.093\nsamples = 266\nvalue = [253, 13]\nclass = <=50K", fillcolor="#e68743"] ;
263 -> 273 ;
274 [label="fnlwgt <= 459022.5\ngini = 0.028\nsamples = 140\nvalue = [138, 2]\nclass = <=50K", fillcolor="#e5833c"] ;
273 -> 274 ;
275 [label="hours.per.week <= 54.5\ngini = 0.015\nsamples = 136\nvalue = [135, 1]\nclass = <=50K", fillcolor="#e5823a"] ;
274 -> 275 ;
276 [label="gini = 0.0\nsamples = 127\nvalue = [127, 0]\nclass = <=50K", fillcolor="#e58139"] ;
275 -> 276 ;
277 [label="hours.per.week <= 56.5\ngini = 0.198\nsamples = 9\nvalue = [8, 1]\nclass = <=50K", fillcolor="#e89152"] ;
275 -> 277 ;
278 [label="gini = 0.0\nsamples = 1\nvalue = [0, 1]\nclass = >50K", fillcolor="#399de5"] ;
277 -> 278 ;
279 [label="gini = 0.0\nsamples = 8\nvalue = [8, 0]\nclass = <=50K", fillcolor="#e58139"] ;
277 -> 279 ;
280 [label="fnlwgt <= 485113.0\ngini = 0.375\nsamples = 4\nvalue = [3, 1]\nclass = <=50K", fillcolor="#eeab7b"] ;
274 -> 280 ;
281 [label="gini = 0.0\nsamples = 1\nvalue = [0, 1]\nclass = >50K", fillcolor="#399de5"] ;
280 -> 281 ;
282 [label="gini = 0.0\nsamples = 3\nvalue = [3, 0]\nclass = <=50K", fillcolor="#e58139"] ;
280 -> 282 ;
283 [label="fnlwgt <= 267169.0\ngini = 0.159\nsamples = 126\nvalue = [115, 11]\nclass = <=50K", fillcolor="#e78d4c"] ;
273 -> 283 ;
284 [label="fnlwgt <= 266467.0\ngini = 0.207\nsamples = 94\nvalue = [83, 11]\nclass = <=50K", fillcolor="#e89253"] ;
283 -> 284 ;
285 [label="fnlwgt <= 114333.0\ngini = 0.192\nsamples = 93\nvalue = [83, 10]\nclass = <=50K", fillcolor="#e89051"] ;
284 -> 285 ;
286 [label="gini = 0.0\nsamples = 26\nvalue = [26, 0]\nclass = <=50K", fillcolor="#e58139"] ;
285 -> 286 ;
287 [label="fnlwgt <= 117744.0\ngini = 0.254\nsamples = 67\nvalue = [57, 10]\nclass = <=50K", fillcolor="#ea975c"] ;
285 -> 287 ;
288 [label="gini = 0.0\nsamples = 1\nvalue = [0, 1]\nclass = >50K", fillcolor="#399de5"] ;
287 -> 288 ;
289 [label="education <= 5.5\ngini = 0.236\nsamples = 66\nvalue = [57, 9]\nclass = <=50K", fillcolor="#e99558"] ;
287 -> 289 ;
290 [label="fnlwgt <= 232745.5\ngini = 0.093\nsamples = 41\nvalue = [39, 2]\nclass = <=50K", fillcolor="#e68743"] ;
289 -> 290 ;
291 [label="occupation <= 2.5\ngini = 0.057\nsamples = 34\nvalue = [33, 1]\nclass = <=50K", fillcolor="#e6853f"] ;
290 -> 291 ;
292 [label="age <= 25.5\ngini = 0.153\nsamples = 12\nvalue = [11, 1]\nclass = <=50K", fillcolor="#e78c4b"] ;
291 -> 292 ;
293 [label="fnlwgt <= 179478.0\ngini = 0.375\nsamples = 4\nvalue = [3, 1]\nclass = <=50K", fillcolor="#eeab7b"] ;
292 -> 293 ;
294 [label="gini = 0.0\nsamples = 1\nvalue = [0, 1]\nclass = >50K", fillcolor="#399de5"] ;
293 -> 294 ;
295 [label="gini = 0.0\nsamples = 3\nvalue = [3, 0]\nclass = <=50K", fillcolor="#e58139"] ;
293 -> 295 ;
296 [label="gini = 0.0\nsamples = 8\nvalue = [8, 0]\nclass = <=50K", fillcolor="#e58139"] ;
292 -> 296 ;
297 [label="gini = 0.0\nsamples = 22\nvalue = [22, 0]\nclass = <=50K", fillcolor="#e58139"] ;
291 -> 297 ;
298 [label="fnlwgt <= 240391.5\ngini = 0.245\nsamples = 7\nvalue = [6, 1]\nclass = <=50K", fillcolor="#e9965a"] ;
290 -> 298 ;
299 [label="gini = 0.0\nsamples = 1\nvalue = [0, 1]\nclass = >50K", fillcolor="#399de5"] ;
298 -> 299 ;
300 [label="gini = 0.0\nsamples = 6\nvalue = [6, 0]\nclass = <=50K", fillcolor="#e58139"] ;
298 -> 300 ;
301 [label="capital.gain <= 2966.0\ngini = 0.403\nsamples = 25\nvalue = [18, 7]\nclass = <=50K", fillcolor="#efb286"] ;
289 -> 301 ;
302 [label="fnlwgt <= 210426.0\ngini = 0.375\nsamples = 24\nvalue = [18, 6]\nclass = <=50K", fillcolor="#eeab7b"] ;
301 -> 302 ;
303 [label="hours.per.week <= 42.0\ngini = 0.278\nsamples = 18\nvalue = [15, 3]\nclass = <=50K", fillcolor="#ea9a61"] ;
302 -> 303 ;
304 [label="education.num <= 9.0\ngini = 0.142\nsamples = 13\nvalue = [12, 1]\nclass = <=50K", fillcolor="#e78c49"] ;
303 -> 304 ;
305 [label="native.country <= 0.5\ngini = 0.5\nsamples = 2\nvalue = [1, 1]\nclass = <=50K", fillcolor="#ffffff"] ;
304 -> 305 ;
306 [label="gini = 0.0\nsamples = 1\nvalue = [1, 0]\nclass = <=50K", fillcolor="#e58139"] ;
305 -> 306 ;
307 [label="gini = 0.0\nsamples = 1\nvalue = [0, 1]\nclass = >50K", fillcolor="#399de5"] ;
305 -> 307 ;
308 [label="gini = 0.0\nsamples = 11\nvalue = [11, 0]\nclass = <=50K", fillcolor="#e58139"] ;
304 -> 308 ;
309 [label="occupation <= 10.0\ngini = 0.48\nsamples = 5\nvalue = [3, 2]\nclass = <=50K", fillcolor="#f6d5bd"] ;
303 -> 309 ;
310 [label="gini = 0.0\nsamples = 2\nvalue = [2, 0]\nclass = <=50K", fillcolor="#e58139"] ;
309 -> 310 ;
311 [label="fnlwgt <= 201649.5\ngini = 0.444\nsamples = 3\nvalue = [1, 2]\nclass = >50K", fillcolor="#9ccef2"] ;
309 -> 311 ;
312 [label="gini = 0.0\nsamples = 2\nvalue = [0, 2]\nclass = >50K", fillcolor="#399de5"] ;
311 -> 312 ;
313 [label="gini = 0.0\nsamples = 1\nvalue = [1, 0]\nclass = <=50K", fillcolor="#e58139"] ;
311 -> 313 ;
314 [label="fnlwgt <= 239801.5\ngini = 0.5\nsamples = 6\nvalue = [3, 3]\nclass = <=50K", fillcolor="#ffffff"] ;
302 -> 314 ;
315 [label="occupation <= 4.0\ngini = 0.375\nsamples = 4\nvalue = [1, 3]\nclass = >50K", fillcolor="#7bbeee"] ;
314 -> 315 ;
316 [label="age <= 25.5\ngini = 0.5\nsamples = 2\nvalue = [1, 1]\nclass = <=50K", fillcolor="#ffffff"] ;
315 -> 316 ;
317 [label="gini = 0.0\nsamples = 1\nvalue = [1, 0]\nclass = <=50K", fillcolor="#e58139"] ;
316 -> 317 ;
318 [label="gini = 0.0\nsamples = 1\nvalue = [0, 1]\nclass = >50K", fillcolor="#399de5"] ;
316 -> 318 ;
319 [label="gini = 0.0\nsamples = 2\nvalue = [0, 2]\nclass = >50K", fillcolor="#399de5"] ;
315 -> 319 ;
320 [label="gini = 0.0\nsamples = 2\nvalue = [2, 0]\nclass = <=50K", fillcolor="#e58139"] ;
314 -> 320 ;
321 [label="gini = 0.0\nsamples = 1\nvalue = [0, 1]\nclass = >50K", fillcolor="#399de5"] ;
301 -> 321 ;
322 [label="gini = 0.0\nsamples = 1\nvalue = [0, 1]\nclass = >50K", fillcolor="#399de5"] ;
284 -> 322 ;
323 [label="gini = 0.0\nsamples = 32\nvalue = [32, 0]\nclass = <=50K", fillcolor="#e58139"] ;
283 -> 323 ;
324 [label="hours.per.week <= 46.5\ngini = 0.436\nsamples = 28\nvalue = [19, 9]\nclass = <=50K", fillcolor="#f1bd97"] ;
262 -> 324 ;
325 [label="fnlwgt <= 144240.5\ngini = 0.332\nsamples = 19\nvalue = [15, 4]\nclass = <=50K", fillcolor="#eca36e"] ;
324 -> 325 ;
326 [label="age <= 24.5\ngini = 0.469\nsamples = 8\nvalue = [5, 3]\nclass = <=50K", fillcolor="#f5cdb0"] ;
325 -> 326 ;
327 [label="gini = 0.0\nsamples = 4\nvalue = [4, 0]\nclass = <=50K", fillcolor="#e58139"] ;
326 -> 327 ;
328 [label="education <= 6.0\ngini = 0.375\nsamples = 4\nvalue = [1, 3]\nclass = >50K", fillcolor="#7bbeee"] ;
326 -> 328 ;
329 [label="gini = 0.0\nsamples = 3\nvalue = [0, 3]\nclass = >50K", fillcolor="#399de5"] ;
328 -> 329 ;
330 [label="gini = 0.0\nsamples = 1\nvalue = [1, 0]\nclass = <=50K", fillcolor="#e58139"] ;
328 -> 330 ;
331 [label="education.num <= 9.5\ngini = 0.165\nsamples = 11\nvalue = [10, 1]\nclass = <=50K", fillcolor="#e88e4d"] ;
325 -> 331 ;
332 [label="gini = 0.0\nsamples = 8\nvalue = [8, 0]\nclass = <=50K", fillcolor="#e58139"] ;
331 -> 332 ;
333 [label="age <= 24.5\ngini = 0.444\nsamples = 3\nvalue = [2, 1]\nclass = <=50K", fillcolor="#f2c09c"] ;
331 -> 333 ;
334 [label="gini = 0.0\nsamples = 1\nvalue = [0, 1]\nclass = >50K", fillcolor="#399de5"] ;
333 -> 334 ;
335 [label="gini = 0.0\nsamples = 2\nvalue = [2, 0]\nclass = <=50K", fillcolor="#e58139"] ;
333 -> 335 ;
336 [label="hours.per.week <= 56.0\ngini = 0.494\nsamples = 9\nvalue = [4, 5]\nclass = >50K", fillcolor="#d7ebfa"] ;
324 -> 336 ;
337 [label="gini = 0.0\nsamples = 4\nvalue = [0, 4]\nclass = >50K", fillcolor="#399de5"] ;
336 -> 337 ;
338 [label="hours.per.week <= 67.5\ngini = 0.32\nsamples = 5\nvalue = [4, 1]\nclass = <=50K", fillcolor="#eca06a"] ;
336 -> 338 ;
339 [label="gini = 0.0\nsamples = 4\nvalue = [4, 0]\nclass = <=50K", fillcolor="#e58139"] ;
338 -> 339 ;
340 [label="gini = 0.0\nsamples = 1\nvalue = [0, 1]\nclass = >50K", fillcolor="#399de5"] ;
338 -> 340 ;
341 [label="education.num <= 9.5\ngini = 0.352\nsamples = 1237\nvalue = [955, 282]\nclass = <=50K", fillcolor="#eda673"] ;
261 -> 341 ;
342 [label="hours.per.week <= 63.5\ngini = 0.291\nsamples = 706\nvalue = [581, 125]\nclass = <=50K", fillcolor="#eb9c64"] ;
341 -> 342 ;
343 [label="race <= 0.5\ngini = 0.277\nsamples = 668\nvalue = [557, 111]\nclass = <=50K", fillcolor="#ea9a60"] ;
342 -> 343 ;
344 [label="hours.per.week <= 57.5\ngini = 0.119\nsamples = 63\nvalue = [59, 4]\nclass = <=50K", fillcolor="#e78a46"] ;
343 -> 344 ;
345 [label="fnlwgt <= 22421.0\ngini = 0.064\nsamples = 60\nvalue = [58, 2]\nclass = <=50K", fillcolor="#e68540"] ;
344 -> 345 ;
346 [label="gini = 0.0\nsamples = 1\nvalue = [0, 1]\nclass = >50K", fillcolor="#399de5"] ;
345 -> 346 ;
347 [label="age <= 29.5\ngini = 0.033\nsamples = 59\nvalue = [58, 1]\nclass = <=50K", fillcolor="#e5833c"] ;
345 -> 347 ;
348 [label="fnlwgt <= 160288.0\ngini = 0.091\nsamples = 21\nvalue = [20, 1]\nclass = <=50K", fillcolor="#e68743"] ;
347 -> 348 ;
349 [label="gini = 0.0\nsamples = 13\nvalue = [13, 0]\nclass = <=50K", fillcolor="#e58139"] ;
348 -> 349 ;
350 [label="fnlwgt <= 162434.5\ngini = 0.219\nsamples = 8\nvalue = [7, 1]\nclass = <=50K", fillcolor="#e99355"] ;
348 -> 350 ;
351 [label="gini = 0.0\nsamples = 1\nvalue = [0, 1]\nclass = >50K", fillcolor="#399de5"] ;
350 -> 351 ;
352 [label="gini = 0.0\nsamples = 7\nvalue = [7, 0]\nclass = <=50K", fillcolor="#e58139"] ;
350 -> 352 ;
353 [label="gini = 0.0\nsamples = 38\nvalue = [38, 0]\nclass = <=50K", fillcolor="#e58139"] ;
347 -> 353 ;
354 [label="fnlwgt <= 301518.5\ngini = 0.444\nsamples = 3\nvalue = [1, 2]\nclass = >50K", fillcolor="#9ccef2"] ;
344 -> 354 ;
355 [label="gini = 0.0\nsamples = 2\nvalue = [0, 2]\nclass = >50K", fillcolor="#399de5"] ;
354 -> 355 ;
356 [label="gini = 0.0\nsamples = 1\nvalue = [1, 0]\nclass = <=50K", fillcolor="#e58139"] ;
354 -> 356 ;
357 [label="age <= 29.5\ngini = 0.291\nsamples = 605\nvalue = [498, 107]\nclass = <=50K", fillcolor="#eb9c64"] ;
343 -> 357 ;
358 [label="marital.status <= 1.5\ngini = 0.211\nsamples = 167\nvalue = [147, 20]\nclass = <=50K", fillcolor="#e99254"] ;
357 -> 358 ;
359 [label="gini = 0.0\nsamples = 1\nvalue = [0, 1]\nclass = >50K", fillcolor="#399de5"] ;
358 -> 359 ;
360 [label="occupation <= 3.5\ngini = 0.203\nsamples = 166\nvalue = [147, 19]\nclass = <=50K", fillcolor="#e89153"] ;
358 -> 360 ;
361 [label="workclass <= 5.5\ngini = 0.291\nsamples = 68\nvalue = [56, 12]\nclass = <=50K", fillcolor="#eb9c63"] ;
360 -> 361 ;
362 [label="fnlwgt <= 270096.0\ngini = 0.274\nsamples = 67\nvalue = [56, 11]\nclass = <=50K", fillcolor="#ea9a60"] ;
361 -> 362 ;
363 [label="hours.per.week <= 45.5\ngini = 0.226\nsamples = 54\nvalue = [47, 7]\nclass = <=50K", fillcolor="#e99456"] ;
362 -> 363 ;
364 [label="fnlwgt <= 161087.5\ngini = 0.295\nsamples = 39\nvalue = [32, 7]\nclass = <=50K", fillcolor="#eb9d64"] ;
363 -> 364 ;
365 [label="fnlwgt <= 141903.5\ngini = 0.375\nsamples = 20\nvalue = [15, 5]\nclass = <=50K", fillcolor="#eeab7b"] ;
364 -> 365 ;
366 [label="fnlwgt <= 83258.5\ngini = 0.278\nsamples = 18\nvalue = [15, 3]\nclass = <=50K", fillcolor="#ea9a61"] ;
365 -> 366 ;
367 [label="fnlwgt <= 64728.5\ngini = 0.42\nsamples = 10\nvalue = [7, 3]\nclass = <=50K", fillcolor="#f0b78e"] ;
366 -> 367 ;
368 [label="occupation <= 2.5\ngini = 0.245\nsamples = 7\nvalue = [6, 1]\nclass = <=50K", fillcolor="#e9965a"] ;
367 -> 368 ;
369 [label="gini = 0.0\nsamples = 6\nvalue = [6, 0]\nclass = <=50K", fillcolor="#e58139"] ;
368 -> 369 ;
370 [label="gini = 0.0\nsamples = 1\nvalue = [0, 1]\nclass = >50K", fillcolor="#399de5"] ;
368 -> 370 ;
371 [label="age <= 28.5\ngini = 0.444\nsamples = 3\nvalue = [1, 2]\nclass = >50K", fillcolor="#9ccef2"] ;
367 -> 371 ;
372 [label="gini = 0.0\nsamples = 2\nvalue = [0, 2]\nclass = >50K", fillcolor="#399de5"] ;
371 -> 372 ;
373 [label="gini = 0.0\nsamples = 1\nvalue = [1, 0]\nclass = <=50K", fillcolor="#e58139"] ;
371 -> 373 ;
374 [label="gini = 0.0\nsamples = 8\nvalue = [8, 0]\nclass = <=50K", fillcolor="#e58139"] ;
366 -> 374 ;
375 [label="gini = 0.0\nsamples = 2\nvalue = [0, 2]\nclass = >50K", fillcolor="#399de5"] ;
365 -> 375 ;
376 [label="fnlwgt <= 202858.5\ngini = 0.188\nsamples = 19\nvalue = [17, 2]\nclass = <=50K", fillcolor="#e89050"] ;
364 -> 376 ;
377 [label="gini = 0.0\nsamples = 11\nvalue = [11, 0]\nclass = <=50K", fillcolor="#e58139"] ;
376 -> 377 ;
378 [label="fnlwgt <= 208781.0\ngini = 0.375\nsamples = 8\nvalue = [6, 2]\nclass = <=50K", fillcolor="#eeab7b"] ;
376 -> 378 ;
379 [label="hours.per.week <= 42.5\ngini = 0.444\nsamples = 3\nvalue = [1, 2]\nclass = >50K", fillcolor="#9ccef2"] ;
378 -> 379 ;
380 [label="gini = 0.0\nsamples = 2\nvalue = [0, 2]\nclass = >50K", fillcolor="#399de5"] ;
379 -> 380 ;
381 [label="gini = 0.0\nsamples = 1\nvalue = [1, 0]\nclass = <=50K", fillcolor="#e58139"] ;
379 -> 381 ;
382 [label="gini = 0.0\nsamples = 5\nvalue = [5, 0]\nclass = <=50K", fillcolor="#e58139"] ;
378 -> 382 ;
383 [label="gini = 0.0\nsamples = 15\nvalue = [15, 0]\nclass = <=50K", fillcolor="#e58139"] ;
363 -> 383 ;
384 [label="fnlwgt <= 283659.0\ngini = 0.426\nsamples = 13\nvalue = [9, 4]\nclass = <=50K", fillcolor="#f1b991"] ;
362 -> 384 ;
385 [label="gini = 0.0\nsamples = 2\nvalue = [0, 2]\nclass = >50K", fillcolor="#399de5"] ;
384 -> 385 ;
386 [label="occupation <= 2.5\ngini = 0.298\nsamples = 11\nvalue = [9, 2]\nclass = <=50K", fillcolor="#eb9d65"] ;
384 -> 386 ;
387 [label="age <= 27.5\ngini = 0.18\nsamples = 10\nvalue = [9, 1]\nclass = <=50K", fillcolor="#e88f4f"] ;
386 -> 387 ;
388 [label="fnlwgt <= 408058.0\ngini = 0.375\nsamples = 4\nvalue = [3, 1]\nclass = <=50K", fillcolor="#eeab7b"] ;
387 -> 388 ;
389 [label="fnlwgt <= 351530.5\ngini = 0.5\nsamples = 2\nvalue = [1, 1]\nclass = <=50K", fillcolor="#ffffff"] ;
388 -> 389 ;
390 [label="gini = 0.0\nsamples = 1\nvalue = [1, 0]\nclass = <=50K", fillcolor="#e58139"] ;
389 -> 390 ;
391 [label="gini = 0.0\nsamples = 1\nvalue = [0, 1]\nclass = >50K", fillcolor="#399de5"] ;
389 -> 391 ;
392 [label="gini = 0.0\nsamples = 2\nvalue = [2, 0]\nclass = <=50K", fillcolor="#e58139"] ;
388 -> 392 ;
393 [label="gini = 0.0\nsamples = 6\nvalue = [6, 0]\nclass = <=50K", fillcolor="#e58139"] ;
387 -> 393 ;
394 [label="gini = 0.0\nsamples = 1\nvalue = [0, 1]\nclass = >50K", fillcolor="#399de5"] ;
386 -> 394 ;
395 [label="gini = 0.0\nsamples = 1\nvalue = [0, 1]\nclass = >50K", fillcolor="#399de5"] ;
361 -> 395 ;
396 [label="occupation <= 8.0\ngini = 0.133\nsamples = 98\nvalue = [91, 7]\nclass = <=50K", fillcolor="#e78b48"] ;
360 -> 396 ;
397 [label="gini = 0.0\nsamples = 50\nvalue = [50, 0]\nclass = <=50K", fillcolor="#e58139"] ;
396 -> 397 ;
398 [label="workclass <= 0.5\ngini = 0.249\nsamples = 48\nvalue = [41, 7]\nclass = <=50K", fillcolor="#e9975b"] ;
396 -> 398 ;
399 [label="gini = 0.0\nsamples = 1\nvalue = [0, 1]\nclass = >50K", fillcolor="#399de5"] ;
398 -> 399 ;
400 [label="occupation <= 9.5\ngini = 0.223\nsamples = 47\nvalue = [41, 6]\nclass = <=50K", fillcolor="#e99356"] ;
398 -> 400 ;
401 [label="age <= 28.5\ngini = 0.48\nsamples = 5\nvalue = [3, 2]\nclass = <=50K", fillcolor="#f6d5bd"] ;
400 -> 401 ;
402 [label="gini = 0.0\nsamples = 2\nvalue = [2, 0]\nclass = <=50K", fillcolor="#e58139"] ;
401 -> 402 ;
403 [label="native.country <= 0.5\ngini = 0.444\nsamples = 3\nvalue = [1, 2]\nclass = >50K", fillcolor="#9ccef2"] ;
401 -> 403 ;
404 [label="gini = 0.0\nsamples = 1\nvalue = [1, 0]\nclass = <=50K", fillcolor="#e58139"] ;
403 -> 404 ;
405 [label="gini = 0.0\nsamples = 2\nvalue = [0, 2]\nclass = >50K", fillcolor="#399de5"] ;
403 -> 405 ;
406 [label="age <= 28.5\ngini = 0.172\nsamples = 42\nvalue = [38, 4]\nclass = <=50K", fillcolor="#e88e4e"] ;
400 -> 406 ;
407 [label="fnlwgt <= 201378.0\ngini = 0.231\nsamples = 30\nvalue = [26, 4]\nclass = <=50K", fillcolor="#e99457"] ;
406 -> 407 ;
408 [label="fnlwgt <= 186931.0\ngini = 0.397\nsamples = 11\nvalue = [8, 3]\nclass = <=50K", fillcolor="#efb083"] ;
407 -> 408 ;
409 [label="hours.per.week <= 42.5\ngini = 0.198\nsamples = 9\nvalue = [8, 1]\nclass = <=50K", fillcolor="#e89152"] ;
408 -> 409 ;
410 [label="gini = 0.0\nsamples = 7\nvalue = [7, 0]\nclass = <=50K", fillcolor="#e58139"] ;
409 -> 410 ;
411 [label="fnlwgt <= 157996.5\ngini = 0.5\nsamples = 2\nvalue = [1, 1]\nclass = <=50K", fillcolor="#ffffff"] ;
409 -> 411 ;
412 [label="gini = 0.0\nsamples = 1\nvalue = [0, 1]\nclass = >50K", fillcolor="#399de5"] ;
411 -> 412 ;
413 [label="gini = 0.0\nsamples = 1\nvalue = [1, 0]\nclass = <=50K", fillcolor="#e58139"] ;
411 -> 413 ;
414 [label="gini = 0.0\nsamples = 2\nvalue = [0, 2]\nclass = >50K", fillcolor="#399de5"] ;
408 -> 414 ;
415 [label="fnlwgt <= 257442.5\ngini = 0.1\nsamples = 19\nvalue = [18, 1]\nclass = <=50K", fillcolor="#e68844"] ;
407 -> 415 ;
416 [label="gini = 0.0\nsamples = 13\nvalue = [13, 0]\nclass = <=50K", fillcolor="#e58139"] ;
415 -> 416 ;
417 [label="fnlwgt <= 269621.5\ngini = 0.278\nsamples = 6\nvalue = [5, 1]\nclass = <=50K", fillcolor="#ea9a61"] ;
415 -> 417 ;
418 [label="gini = 0.0\nsamples = 1\nvalue = [0, 1]\nclass = >50K", fillcolor="#399de5"] ;
417 -> 418 ;
419 [label="gini = 0.0\nsamples = 5\nvalue = [5, 0]\nclass = <=50K", fillcolor="#e58139"] ;
417 -> 419 ;
420 [label="gini = 0.0\nsamples = 12\nvalue = [12, 0]\nclass = <=50K", fillcolor="#e58139"] ;
406 -> 420 ;
421 [label="fnlwgt <= 88409.0\ngini = 0.318\nsamples = 438\nvalue = [351, 87]\nclass = <=50K", fillcolor="#eba06a"] ;
357 -> 421 ;
422 [label="occupation <= 8.0\ngini = 0.161\nsamples = 68\nvalue = [62, 6]\nclass = <=50K", fillcolor="#e88d4c"] ;
421 -> 422 ;
423 [label="capital.gain <= 1551.5\ngini = 0.043\nsamples = 46\nvalue = [45, 1]\nclass = <=50K", fillcolor="#e6843d"] ;
422 -> 423 ;
424 [label="gini = 0.0\nsamples = 43\nvalue = [43, 0]\nclass = <=50K", fillcolor="#e58139"] ;
423 -> 424 ;
425 [label="hours.per.week <= 47.5\ngini = 0.444\nsamples = 3\nvalue = [2, 1]\nclass = <=50K", fillcolor="#f2c09c"] ;
423 -> 425 ;
426 [label="gini = 0.0\nsamples = 2\nvalue = [2, 0]\nclass = <=50K", fillcolor="#e58139"] ;
425 -> 426 ;
427 [label="gini = 0.0\nsamples = 1\nvalue = [0, 1]\nclass = >50K", fillcolor="#399de5"] ;
425 -> 427 ;
428 [label="fnlwgt <= 31722.0\ngini = 0.351\nsamples = 22\nvalue = [17, 5]\nclass = <=50K", fillcolor="#eda673"] ;
422 -> 428 ;
429 [label="age <= 32.0\ngini = 0.444\nsamples = 3\nvalue = [1, 2]\nclass = >50K", fillcolor="#9ccef2"] ;
428 -> 429 ;
430 [label="gini = 0.0\nsamples = 1\nvalue = [0, 1]\nclass = >50K", fillcolor="#399de5"] ;
429 -> 430 ;
431 [label="fnlwgt <= 29034.5\ngini = 0.5\nsamples = 2\nvalue = [1, 1]\nclass = <=50K", fillcolor="#ffffff"] ;
429 -> 431 ;
432 [label="gini = 0.0\nsamples = 1\nvalue = [1, 0]\nclass = <=50K", fillcolor="#e58139"] ;
431 -> 432 ;
433 [label="gini = 0.0\nsamples = 1\nvalue = [0, 1]\nclass = >50K", fillcolor="#399de5"] ;
431 -> 433 ;
434 [label="fnlwgt <= 63826.0\ngini = 0.266\nsamples = 19\nvalue = [16, 3]\nclass = <=50K", fillcolor="#ea995e"] ;
428 -> 434 ;
435 [label="hours.per.week <= 51.0\ngini = 0.124\nsamples = 15\nvalue = [14, 1]\nclass = <=50K", fillcolor="#e78a47"] ;
434 -> 435 ;
436 [label="gini = 0.0\nsamples = 13\nvalue = [13, 0]\nclass = <=50K", fillcolor="#e58139"] ;
435 -> 436 ;
437 [label="fnlwgt <= 54107.0\ngini = 0.5\nsamples = 2\nvalue = [1, 1]\nclass = <=50K", fillcolor="#ffffff"] ;
435 -> 437 ;
438 [label="gini = 0.0\nsamples = 1\nvalue = [0, 1]\nclass = >50K", fillcolor="#399de5"] ;
437 -> 438 ;
439 [label="gini = 0.0\nsamples = 1\nvalue = [1, 0]\nclass = <=50K", fillcolor="#e58139"] ;
437 -> 439 ;
440 [label="occupation <= 12.5\ngini = 0.5\nsamples = 4\nvalue = [2, 2]\nclass = <=50K", fillcolor="#ffffff"] ;
434 -> 440 ;
441 [label="gini = 0.0\nsamples = 2\nvalue = [0, 2]\nclass = >50K", fillcolor="#399de5"] ;
440 -> 441 ;
442 [label="gini = 0.0\nsamples = 2\nvalue = [2, 0]\nclass = <=50K", fillcolor="#e58139"] ;
440 -> 442 ;
443 [label="fnlwgt <= 90326.5\ngini = 0.342\nsamples = 370\nvalue = [289, 81]\nclass = <=50K", fillcolor="#eca470"] ;
421 -> 443 ;
444 [label="gini = 0.0\nsamples = 1\nvalue = [0, 1]\nclass = >50K", fillcolor="#399de5"] ;
443 -> 444 ;
445 [label="capital.gain <= 3120.0\ngini = 0.34\nsamples = 369\nvalue = [289, 80]\nclass = <=50K", fillcolor="#eca470"] ;
443 -> 445 ;
446 [label="capital.gain <= 2994.0\ngini = 0.346\nsamples = 359\nvalue = [279, 80]\nclass = <=50K", fillcolor="#eca572"] ;
445 -> 446 ;
447 [label="occupation <= 11.5\ngini = 0.344\nsamples = 358\nvalue = [279, 79]\nclass = <=50K", fillcolor="#eca571"] ;
446 -> 447 ;
448 [label="fnlwgt <= 112795.5\ngini = 0.359\nsamples = 316\nvalue = [242, 74]\nclass = <=50K", fillcolor="#eda876"] ;
447 -> 448 ;
449 [label="hours.per.week <= 42.5\ngini = 0.231\nsamples = 30\nvalue = [26, 4]\nclass = <=50K", fillcolor="#e99457"] ;
448 -> 449 ;
450 [label="native.country <= 0.5\ngini = 0.332\nsamples = 19\nvalue = [15, 4]\nclass = <=50K", fillcolor="#eca36e"] ;
449 -> 450 ;
451 [label="gini = 0.0\nsamples = 1\nvalue = [0, 1]\nclass = >50K", fillcolor="#399de5"] ;
450 -> 451 ;
452 [label="occupation <= 4.0\ngini = 0.278\nsamples = 18\nvalue = [15, 3]\nclass = <=50K", fillcolor="#ea9a61"] ;
450 -> 452 ;
453 [label="age <= 33.5\ngini = 0.42\nsamples = 10\nvalue = [7, 3]\nclass = <=50K", fillcolor="#f0b78e"] ;
452 -> 453 ;
454 [label="capital.loss <= 836.0\ngini = 0.5\nsamples = 6\nvalue = [3, 3]\nclass = <=50K", fillcolor="#ffffff"] ;
453 -> 454 ;
455 [label="fnlwgt <= 94082.5\ngini = 0.48\nsamples = 5\nvalue = [2, 3]\nclass = >50K", fillcolor="#bddef6"] ;
454 -> 455 ;
456 [label="gini = 0.0\nsamples = 1\nvalue = [1, 0]\nclass = <=50K", fillcolor="#e58139"] ;
455 -> 456 ;
457 [label="fnlwgt <= 103782.5\ngini = 0.375\nsamples = 4\nvalue = [1, 3]\nclass = >50K", fillcolor="#7bbeee"] ;
455 -> 457 ;
458 [label="gini = 0.0\nsamples = 2\nvalue = [0, 2]\nclass = >50K", fillcolor="#399de5"] ;
457 -> 458 ;
459 [label="fnlwgt <= 108347.0\ngini = 0.5\nsamples = 2\nvalue = [1, 1]\nclass = <=50K", fillcolor="#ffffff"] ;
457 -> 459 ;
460 [label="gini = 0.0\nsamples = 1\nvalue = [1, 0]\nclass = <=50K", fillcolor="#e58139"] ;
459 -> 460 ;
461 [label="gini = 0.0\nsamples = 1\nvalue = [0, 1]\nclass = >50K", fillcolor="#399de5"] ;
459 -> 461 ;
462 [label="gini = 0.0\nsamples = 1\nvalue = [1, 0]\nclass = <=50K", fillcolor="#e58139"] ;
454 -> 462 ;
463 [label="gini = 0.0\nsamples = 4\nvalue = [4, 0]\nclass = <=50K", fillcolor="#e58139"] ;
453 -> 463 ;
464 [label="gini = 0.0\nsamples = 8\nvalue = [8, 0]\nclass = <=50K", fillcolor="#e58139"] ;
452 -> 464 ;
465 [label="gini = 0.0\nsamples = 11\nvalue = [11, 0]\nclass = <=50K", fillcolor="#e58139"] ;
449 -> 465 ;
466 [label="fnlwgt <= 115277.0\ngini = 0.37\nsamples = 286\nvalue = [216, 70]\nclass = <=50K", fillcolor="#edaa79"] ;
448 -> 466 ;
467 [label="hours.per.week <= 42.0\ngini = 0.444\nsamples = 6\nvalue = [2, 4]\nclass = >50K", fillcolor="#9ccef2"] ;
466 -> 467 ;
468 [label="gini = 0.0\nsamples = 3\nvalue = [0, 3]\nclass = >50K", fillcolor="#399de5"] ;
467 -> 468 ;
469 [label="occupation <= 8.5\ngini = 0.444\nsamples = 3\nvalue = [2, 1]\nclass = <=50K", fillcolor="#f2c09c"] ;
467 -> 469 ;
470 [label="gini = 0.0\nsamples = 2\nvalue = [2, 0]\nclass = <=50K", fillcolor="#e58139"] ;
469 -> 470 ;
471 [label="gini = 0.0\nsamples = 1\nvalue = [0, 1]\nclass = >50K", fillcolor="#399de5"] ;
469 -> 471 ;
472 [label="fnlwgt <= 124907.0\ngini = 0.36\nsamples = 280\nvalue = [214, 66]\nclass = <=50K", fillcolor="#eda876"] ;
466 -> 472 ;
473 [label="gini = 0.0\nsamples = 13\nvalue = [13, 0]\nclass = <=50K", fillcolor="#e58139"] ;
472 -> 473 ;
474 [label="fnlwgt <= 166844.0\ngini = 0.372\nsamples = 267\nvalue = [201, 66]\nclass = <=50K", fillcolor="#eeaa7a"] ;
472 -> 474 ;
475 [label="fnlwgt <= 157556.5\ngini = 0.451\nsamples = 64\nvalue = [42, 22]\nclass = <=50K", fillcolor="#f3c3a1"] ;
474 -> 475 ;
476 [label="fnlwgt <= 154535.0\ngini = 0.38\nsamples = 51\nvalue = [38, 13]\nclass = <=50K", fillcolor="#eeac7d"] ;
475 -> 476 ;
477 [label="occupation <= 9.5\ngini = 0.427\nsamples = 42\nvalue = [29, 13]\nclass = <=50K", fillcolor="#f1b992"] ;
476 -> 477 ;
478 [label="fnlwgt <= 154157.0\ngini = 0.375\nsamples = 36\nvalue = [27, 9]\nclass = <=50K", fillcolor="#eeab7b"] ;
477 -> 478 ;
479 [label="hours.per.week <= 46.5\ngini = 0.353\nsamples = 35\nvalue = [27, 8]\nclass = <=50K", fillcolor="#eda674"] ;
478 -> 479 ;
480 [label="fnlwgt <= 128109.0\ngini = 0.278\nsamples = 24\nvalue = [20, 4]\nclass = <=50K", fillcolor="#ea9a61"] ;
479 -> 480 ;
481 [label="workclass <= 2.0\ngini = 0.5\nsamples = 2\nvalue = [1, 1]\nclass = <=50K", fillcolor="#ffffff"] ;
480 -> 481 ;
482 [label="gini = 0.0\nsamples = 1\nvalue = [0, 1]\nclass = >50K", fillcolor="#399de5"] ;
481 -> 482 ;
483 [label="gini = 0.0\nsamples = 1\nvalue = [1, 0]\nclass = <=50K", fillcolor="#e58139"] ;
481 -> 483 ;
484 [label="occupation <= 4.0\ngini = 0.236\nsamples = 22\nvalue = [19, 3]\nclass = <=50K", fillcolor="#e99558"] ;
480 -> 484 ;
485 [label="fnlwgt <= 133052.0\ngini = 0.133\nsamples = 14\nvalue = [13, 1]\nclass = <=50K", fillcolor="#e78b48"] ;
484 -> 485 ;
486 [label="fnlwgt <= 130584.0\ngini = 0.5\nsamples = 2\nvalue = [1, 1]\nclass = <=50K", fillcolor="#ffffff"] ;
485 -> 486 ;
487 [label="gini = 0.0\nsamples = 1\nvalue = [1, 0]\nclass = <=50K", fillcolor="#e58139"] ;
486 -> 487 ;
488 [label="gini = 0.0\nsamples = 1\nvalue = [0, 1]\nclass = >50K", fillcolor="#399de5"] ;
486 -> 488 ;
489 [label="gini = 0.0\nsamples = 12\nvalue = [12, 0]\nclass = <=50K", fillcolor="#e58139"] ;
485 -> 489 ;
490 [label="fnlwgt <= 136887.5\ngini = 0.375\nsamples = 8\nvalue = [6, 2]\nclass = <=50K", fillcolor="#eeab7b"] ;
484 -> 490 ;
491 [label="gini = 0.0\nsamples = 5\nvalue = [5, 0]\nclass = <=50K", fillcolor="#e58139"] ;
490 -> 491 ;
492 [label="fnlwgt <= 152320.5\ngini = 0.444\nsamples = 3\nvalue = [1, 2]\nclass = >50K", fillcolor="#9ccef2"] ;
490 -> 492 ;
493 [label="gini = 0.0\nsamples = 2\nvalue = [0, 2]\nclass = >50K", fillcolor="#399de5"] ;
492 -> 493 ;
494 [label="gini = 0.0\nsamples = 1\nvalue = [1, 0]\nclass = <=50K", fillcolor="#e58139"] ;
492 -> 494 ;
495 [label="occupation <= 2.5\ngini = 0.463\nsamples = 11\nvalue = [7, 4]\nclass = <=50K", fillcolor="#f4c9aa"] ;
479 -> 495 ;
496 [label="age <= 32.0\ngini = 0.49\nsamples = 7\nvalue = [3, 4]\nclass = >50K", fillcolor="#cee6f8"] ;
495 -> 496 ;
497 [label="hours.per.week <= 49.0\ngini = 0.375\nsamples = 4\nvalue = [3, 1]\nclass = <=50K", fillcolor="#eeab7b"] ;
496 -> 497 ;
498 [label="gini = 0.0\nsamples = 1\nvalue = [0, 1]\nclass = >50K", fillcolor="#399de5"] ;
497 -> 498 ;
499 [label="gini = 0.0\nsamples = 3\nvalue = [3, 0]\nclass = <=50K", fillcolor="#e58139"] ;
497 -> 499 ;
500 [label="gini = 0.0\nsamples = 3\nvalue = [0, 3]\nclass = >50K", fillcolor="#399de5"] ;
496 -> 500 ;
501 [label="gini = 0.0\nsamples = 4\nvalue = [4, 0]\nclass = <=50K", fillcolor="#e58139"] ;
495 -> 501 ;
502 [label="gini = 0.0\nsamples = 1\nvalue = [0, 1]\nclass = >50K", fillcolor="#399de5"] ;
478 -> 502 ;
503 [label="age <= 32.5\ngini = 0.444\nsamples = 6\nvalue = [2, 4]\nclass = >50K", fillcolor="#9ccef2"] ;
477 -> 503 ;
504 [label="workclass <= 4.5\ngini = 0.444\nsamples = 3\nvalue = [2, 1]\nclass = <=50K", fillcolor="#f2c09c"] ;
503 -> 504 ;
505 [label="gini = 0.0\nsamples = 2\nvalue = [2, 0]\nclass = <=50K", fillcolor="#e58139"] ;
504 -> 505 ;
506 [label="gini = 0.0\nsamples = 1\nvalue = [0, 1]\nclass = >50K", fillcolor="#399de5"] ;
504 -> 506 ;
507 [label="gini = 0.0\nsamples = 3\nvalue = [0, 3]\nclass = >50K", fillcolor="#399de5"] ;
503 -> 507 ;
508 [label="gini = 0.0\nsamples = 9\nvalue = [9, 0]\nclass = <=50K", fillcolor="#e58139"] ;
476 -> 508 ;
509 [label="hours.per.week <= 42.0\ngini = 0.426\nsamples = 13\nvalue = [4, 9]\nclass = >50K", fillcolor="#91c9f1"] ;
475 -> 509 ;
510 [label="fnlwgt <= 161370.0\ngini = 0.5\nsamples = 8\nvalue = [4, 4]\nclass = <=50K", fillcolor="#ffffff"] ;
509 -> 510 ;
511 [label="gini = 0.0\nsamples = 3\nvalue = [3, 0]\nclass = <=50K", fillcolor="#e58139"] ;
510 -> 511 ;
512 [label="fnlwgt <= 164637.0\ngini = 0.32\nsamples = 5\nvalue = [1, 4]\nclass = >50K", fillcolor="#6ab6ec"] ;
510 -> 512 ;
513 [label="gini = 0.0\nsamples = 3\nvalue = [0, 3]\nclass = >50K", fillcolor="#399de5"] ;
512 -> 513 ;
514 [label="fnlwgt <= 165687.0\ngini = 0.5\nsamples = 2\nvalue = [1, 1]\nclass = <=50K", fillcolor="#ffffff"] ;
512 -> 514 ;
515 [label="gini = 0.0\nsamples = 1\nvalue = [1, 0]\nclass = <=50K", fillcolor="#e58139"] ;
514 -> 515 ;
516 [label="gini = 0.0\nsamples = 1\nvalue = [0, 1]\nclass = >50K", fillcolor="#399de5"] ;
514 -> 516 ;
517 [label="gini = 0.0\nsamples = 5\nvalue = [0, 5]\nclass = >50K", fillcolor="#399de5"] ;
509 -> 517 ;
518 [label="fnlwgt <= 177079.5\ngini = 0.34\nsamples = 203\nvalue = [159, 44]\nclass = <=50K", fillcolor="#eca470"] ;
474 -> 518 ;
519 [label="gini = 0.0\nsamples = 23\nvalue = [23, 0]\nclass = <=50K", fillcolor="#e58139"] ;
518 -> 519 ;
520 [label="fnlwgt <= 178041.5\ngini = 0.369\nsamples = 180\nvalue = [136, 44]\nclass = <=50K", fillcolor="#edaa79"] ;
518 -> 520 ;
521 [label="gini = 0.0\nsamples = 1\nvalue = [0, 1]\nclass = >50K", fillcolor="#399de5"] ;
520 -> 521 ;
522 [label="fnlwgt <= 466770.5\ngini = 0.365\nsamples = 179\nvalue = [136, 43]\nclass = <=50K", fillcolor="#eda978"] ;
520 -> 522 ;
523 [label="fnlwgt <= 451977.0\ngini = 0.374\nsamples = 173\nvalue = [130, 43]\nclass = <=50K", fillcolor="#eeab7a"] ;
522 -> 523 ;
524 [label="fnlwgt <= 186644.0\ngini = 0.369\nsamples = 172\nvalue = [130, 42]\nclass = <=50K", fillcolor="#edaa79"] ;
523 -> 524 ;
525 [label="fnlwgt <= 184778.0\ngini = 0.473\nsamples = 13\nvalue = [8, 5]\nclass = <=50K", fillcolor="#f5d0b5"] ;
524 -> 525 ;
526 [label="fnlwgt <= 180716.5\ngini = 0.397\nsamples = 11\nvalue = [8, 3]\nclass = <=50K", fillcolor="#efb083"] ;
525 -> 526 ;
527 [label="gini = 0.0\nsamples = 4\nvalue = [4, 0]\nclass = <=50K", fillcolor="#e58139"] ;
526 -> 527 ;
528 [label="age <= 34.5\ngini = 0.49\nsamples = 7\nvalue = [4, 3]\nclass = <=50K", fillcolor="#f8e0ce"] ;
526 -> 528 ;
529 [label="age <= 30.5\ngini = 0.375\nsamples = 4\nvalue = [1, 3]\nclass = >50K", fillcolor="#7bbeee"] ;
528 -> 529 ;
530 [label="gini = 0.0\nsamples = 1\nvalue = [1, 0]\nclass = <=50K", fillcolor="#e58139"] ;
529 -> 530 ;
531 [label="gini = 0.0\nsamples = 3\nvalue = [0, 3]\nclass = >50K", fillcolor="#399de5"] ;
529 -> 531 ;
532 [label="gini = 0.0\nsamples = 3\nvalue = [3, 0]\nclass = <=50K", fillcolor="#e58139"] ;
528 -> 532 ;
533 [label="gini = 0.0\nsamples = 2\nvalue = [0, 2]\nclass = >50K", fillcolor="#399de5"] ;
525 -> 533 ;
534 [label="fnlwgt <= 196222.0\ngini = 0.357\nsamples = 159\nvalue = [122, 37]\nclass = <=50K", fillcolor="#eda775"] ;
524 -> 534 ;
535 [label="occupation <= 10.5\ngini = 0.153\nsamples = 24\nvalue = [22, 2]\nclass = <=50K", fillcolor="#e78c4b"] ;
534 -> 535 ;
536 [label="workclass <= 4.0\ngini = 0.083\nsamples = 23\nvalue = [22, 1]\nclass = <=50K", fillcolor="#e68742"] ;
535 -> 536 ;
537 [label="gini = 0.0\nsamples = 19\nvalue = [19, 0]\nclass = <=50K", fillcolor="#e58139"] ;
536 -> 537 ;
538 [label="workclass <= 5.5\ngini = 0.375\nsamples = 4\nvalue = [3, 1]\nclass = <=50K", fillcolor="#eeab7b"] ;
536 -> 538 ;
539 [label="gini = 0.0\nsamples = 1\nvalue = [0, 1]\nclass = >50K", fillcolor="#399de5"] ;
538 -> 539 ;
540 [label="gini = 0.0\nsamples = 3\nvalue = [3, 0]\nclass = <=50K", fillcolor="#e58139"] ;
538 -> 540 ;
541 [label="gini = 0.0\nsamples = 1\nvalue = [0, 1]\nclass = >50K", fillcolor="#399de5"] ;
535 -> 541 ;
542 [label="workclass <= 2.0\ngini = 0.384\nsamples = 135\nvalue = [100, 35]\nclass = <=50K", fillcolor="#eead7e"] ;
534 -> 542 ;
543 [label="age <= 32.0\ngini = 0.494\nsamples = 9\nvalue = [4, 5]\nclass = >50K", fillcolor="#d7ebfa"] ;
542 -> 543 ;
544 [label="gini = 0.0\nsamples = 4\nvalue = [0, 4]\nclass = >50K", fillcolor="#399de5"] ;
543 -> 544 ;
545 [label="age <= 34.5\ngini = 0.32\nsamples = 5\nvalue = [4, 1]\nclass = <=50K", fillcolor="#eca06a"] ;
543 -> 545 ;
546 [label="gini = 0.0\nsamples = 4\nvalue = [4, 0]\nclass = <=50K", fillcolor="#e58139"] ;
545 -> 546 ;
547 [label="gini = 0.0\nsamples = 1\nvalue = [0, 1]\nclass = >50K", fillcolor="#399de5"] ;
545 -> 547 ;
548 [label="fnlwgt <= 217812.0\ngini = 0.363\nsamples = 126\nvalue = [96, 30]\nclass = <=50K", fillcolor="#eda877"] ;
542 -> 548 ;
549 [label="hours.per.week <= 52.0\ngini = 0.463\nsamples = 33\nvalue = [21, 12]\nclass = <=50K", fillcolor="#f4c9aa"] ;
548 -> 549 ;
550 [label="occupation <= 6.5\ngini = 0.4\nsamples = 29\nvalue = [21, 8]\nclass = <=50K", fillcolor="#efb184"] ;
549 -> 550 ;
551 [label="fnlwgt <= 211705.0\ngini = 0.472\nsamples = 21\nvalue = [13, 8]\nclass = <=50K", fillcolor="#f5cfb3"] ;
550 -> 551 ;
552 [label="age <= 31.5\ngini = 0.432\nsamples = 19\nvalue = [13, 6]\nclass = <=50K", fillcolor="#f1bb94"] ;
551 -> 552 ;
553 [label="fnlwgt <= 203770.0\ngini = 0.375\nsamples = 4\nvalue = [1, 3]\nclass = >50K", fillcolor="#7bbeee"] ;
552 -> 553 ;
554 [label="occupation <= 5.5\ngini = 0.5\nsamples = 2\nvalue = [1, 1]\nclass = <=50K", fillcolor="#ffffff"] ;
553 -> 554 ;
555 [label="gini = 0.0\nsamples = 1\nvalue = [1, 0]\nclass = <=50K", fillcolor="#e58139"] ;
554 -> 555 ;
556 [label="gini = 0.0\nsamples = 1\nvalue = [0, 1]\nclass = >50K", fillcolor="#399de5"] ;
554 -> 556 ;
557 [label="gini = 0.0\nsamples = 2\nvalue = [0, 2]\nclass = >50K", fillcolor="#399de5"] ;
553 -> 557 ;
558 [label="fnlwgt <= 196815.5\ngini = 0.32\nsamples = 15\nvalue = [12, 3]\nclass = <=50K", fillcolor="#eca06a"] ;
552 -> 558 ;
559 [label="gini = 0.0\nsamples = 1\nvalue = [0, 1]\nclass = >50K", fillcolor="#399de5"] ;
558 -> 559 ;
560 [label="hours.per.week <= 37.5\ngini = 0.245\nsamples = 14\nvalue = [12, 2]\nclass = <=50K", fillcolor="#e9965a"] ;
558 -> 560 ;
561 [label="gini = 0.0\nsamples = 1\nvalue = [0, 1]\nclass = >50K", fillcolor="#399de5"] ;
560 -> 561 ;
562 [label="workclass <= 4.5\ngini = 0.142\nsamples = 13\nvalue = [12, 1]\nclass = <=50K", fillcolor="#e78c49"] ;
560 -> 562 ;
563 [label="gini = 0.0\nsamples = 11\nvalue = [11, 0]\nclass = <=50K", fillcolor="#e58139"] ;
562 -> 563 ;
564 [label="age <= 33.0\ngini = 0.5\nsamples = 2\nvalue = [1, 1]\nclass = <=50K", fillcolor="#ffffff"] ;
562 -> 564 ;
565 [label="gini = 0.0\nsamples = 1\nvalue = [1, 0]\nclass = <=50K", fillcolor="#e58139"] ;
564 -> 565 ;
566 [label="gini = 0.0\nsamples = 1\nvalue = [0, 1]\nclass = >50K", fillcolor="#399de5"] ;
564 -> 566 ;
567 [label="gini = 0.0\nsamples = 2\nvalue = [0, 2]\nclass = >50K", fillcolor="#399de5"] ;
551 -> 567 ;
568 [label="gini = 0.0\nsamples = 8\nvalue = [8, 0]\nclass = <=50K", fillcolor="#e58139"] ;
550 -> 568 ;
569 [label="gini = 0.0\nsamples = 4\nvalue = [0, 4]\nclass = >50K", fillcolor="#399de5"] ;
549 -> 569 ;
570 [label="age <= 30.5\ngini = 0.312\nsamples = 93\nvalue = [75, 18]\nclass = <=50K", fillcolor="#eb9f69"] ;
548 -> 570 ;
571 [label="gini = 0.0\nsamples = 15\nvalue = [15, 0]\nclass = <=50K", fillcolor="#e58139"] ;
570 -> 571 ;
572 [label="occupation <= 2.5\ngini = 0.355\nsamples = 78\nvalue = [60, 18]\nclass = <=50K", fillcolor="#eda774"] ;
570 -> 572 ;
573 [label="workclass <= 5.5\ngini = 0.245\nsamples = 35\nvalue = [30, 5]\nclass = <=50K", fillcolor="#e9965a"] ;
572 -> 573 ;
574 [label="fnlwgt <= 307484.5\ngini = 0.213\nsamples = 33\nvalue = [29, 4]\nclass = <=50K", fillcolor="#e99254"] ;
573 -> 574 ;
575 [label="fnlwgt <= 300450.5\ngini = 0.32\nsamples = 20\nvalue = [16, 4]\nclass = <=50K", fillcolor="#eca06a"] ;
574 -> 575 ;
576 [label="fnlwgt <= 229958.0\ngini = 0.266\nsamples = 19\nvalue = [16, 3]\nclass = <=50K", fillcolor="#ea995e"] ;
575 -> 576 ;
577 [label="gini = 0.0\nsamples = 7\nvalue = [7, 0]\nclass = <=50K", fillcolor="#e58139"] ;
576 -> 577 ;
578 [label="fnlwgt <= 233952.0\ngini = 0.375\nsamples = 12\nvalue = [9, 3]\nclass = <=50K", fillcolor="#eeab7b"] ;
576 -> 578 ;
579 [label="gini = 0.0\nsamples = 1\nvalue = [0, 1]\nclass = >50K", fillcolor="#399de5"] ;
578 -> 579 ;
580 [label="fnlwgt <= 259635.5\ngini = 0.298\nsamples = 11\nvalue = [9, 2]\nclass = <=50K", fillcolor="#eb9d65"] ;
578 -> 580 ;
581 [label="hours.per.week <= 42.5\ngini = 0.444\nsamples = 6\nvalue = [4, 2]\nclass = <=50K", fillcolor="#f2c09c"] ;
580 -> 581 ;
582 [label="native.country <= 0.5\ngini = 0.444\nsamples = 3\nvalue = [1, 2]\nclass = >50K", fillcolor="#9ccef2"] ;
581 -> 582 ;
583 [label="gini = 0.0\nsamples = 1\nvalue = [1, 0]\nclass = <=50K", fillcolor="#e58139"] ;
582 -> 583 ;
584 [label="gini = 0.0\nsamples = 2\nvalue = [0, 2]\nclass = >50K", fillcolor="#399de5"] ;
582 -> 584 ;
585 [label="gini = 0.0\nsamples = 3\nvalue = [3, 0]\nclass = <=50K", fillcolor="#e58139"] ;
581 -> 585 ;
586 [label="gini = 0.0\nsamples = 5\nvalue = [5, 0]\nclass = <=50K", fillcolor="#e58139"] ;
580 -> 586 ;
587 [label="gini = 0.0\nsamples = 1\nvalue = [0, 1]\nclass = >50K", fillcolor="#399de5"] ;
575 -> 587 ;
588 [label="gini = 0.0\nsamples = 13\nvalue = [13, 0]\nclass = <=50K", fillcolor="#e58139"] ;
574 -> 588 ;
589 [label="fnlwgt <= 314330.5\ngini = 0.5\nsamples = 2\nvalue = [1, 1]\nclass = <=50K", fillcolor="#ffffff"] ;
573 -> 589 ;
590 [label="gini = 0.0\nsamples = 1\nvalue = [1, 0]\nclass = <=50K", fillcolor="#e58139"] ;
589 -> 590 ;
591 [label="gini = 0.0\nsamples = 1\nvalue = [0, 1]\nclass = >50K", fillcolor="#399de5"] ;
589 -> 591 ;
592 [label="workclass <= 4.5\ngini = 0.422\nsamples = 43\nvalue = [30, 13]\nclass = <=50K", fillcolor="#f0b88f"] ;
572 -> 592 ;
593 [label="fnlwgt <= 338470.5\ngini = 0.461\nsamples = 36\nvalue = [23, 13]\nclass = <=50K", fillcolor="#f4c8a9"] ;
592 -> 593 ;
594 [label="fnlwgt <= 231619.5\ngini = 0.384\nsamples = 27\nvalue = [20, 7]\nclass = <=50K", fillcolor="#eead7e"] ;
593 -> 594 ;
595 [label="native.country <= 0.5\ngini = 0.32\nsamples = 5\nvalue = [1, 4]\nclass = >50K", fillcolor="#6ab6ec"] ;
594 -> 595 ;
596 [label="fnlwgt <= 221360.5\ngini = 0.5\nsamples = 2\nvalue = [1, 1]\nclass = <=50K", fillcolor="#ffffff"] ;
595 -> 596 ;
597 [label="gini = 0.0\nsamples = 1\nvalue = [0, 1]\nclass = >50K", fillcolor="#399de5"] ;
596 -> 597 ;
598 [label="gini = 0.0\nsamples = 1\nvalue = [1, 0]\nclass = <=50K", fillcolor="#e58139"] ;
596 -> 598 ;
599 [label="gini = 0.0\nsamples = 3\nvalue = [0, 3]\nclass = >50K", fillcolor="#399de5"] ;
595 -> 599 ;
600 [label="workclass <= 3.5\ngini = 0.236\nsamples = 22\nvalue = [19, 3]\nclass = <=50K", fillcolor="#e99558"] ;
594 -> 600 ;
601 [label="fnlwgt <= 263148.5\ngini = 0.172\nsamples = 21\nvalue = [19, 2]\nclass = <=50K", fillcolor="#e88e4e"] ;
600 -> 601 ;
602 [label="gini = 0.0\nsamples = 10\nvalue = [10, 0]\nclass = <=50K", fillcolor="#e58139"] ;
601 -> 602 ;
603 [label="fnlwgt <= 271912.0\ngini = 0.298\nsamples = 11\nvalue = [9, 2]\nclass = <=50K", fillcolor="#eb9d65"] ;
601 -> 603 ;
604 [label="gini = 0.0\nsamples = 1\nvalue = [0, 1]\nclass = >50K", fillcolor="#399de5"] ;
603 -> 604 ;
605 [label="occupation <= 10.0\ngini = 0.18\nsamples = 10\nvalue = [9, 1]\nclass = <=50K", fillcolor="#e88f4f"] ;
603 -> 605 ;
606 [label="gini = 0.0\nsamples = 8\nvalue = [8, 0]\nclass = <=50K", fillcolor="#e58139"] ;
605 -> 606 ;
607 [label="fnlwgt <= 315768.5\ngini = 0.5\nsamples = 2\nvalue = [1, 1]\nclass = <=50K", fillcolor="#ffffff"] ;
605 -> 607 ;
608 [label="gini = 0.0\nsamples = 1\nvalue = [0, 1]\nclass = >50K", fillcolor="#399de5"] ;
607 -> 608 ;
609 [label="gini = 0.0\nsamples = 1\nvalue = [1, 0]\nclass = <=50K", fillcolor="#e58139"] ;
607 -> 609 ;
610 [label="gini = 0.0\nsamples = 1\nvalue = [0, 1]\nclass = >50K", fillcolor="#399de5"] ;
600 -> 610 ;
611 [label="occupation <= 8.0\ngini = 0.444\nsamples = 9\nvalue = [3, 6]\nclass = >50K", fillcolor="#9ccef2"] ;
593 -> 611 ;
612 [label="fnlwgt <= 349332.0\ngini = 0.5\nsamples = 6\nvalue = [3, 3]\nclass = <=50K", fillcolor="#ffffff"] ;
611 -> 612 ;
613 [label="gini = 0.0\nsamples = 2\nvalue = [0, 2]\nclass = >50K", fillcolor="#399de5"] ;
612 -> 613 ;
614 [label="hours.per.week <= 45.0\ngini = 0.375\nsamples = 4\nvalue = [3, 1]\nclass = <=50K", fillcolor="#eeab7b"] ;
612 -> 614 ;
615 [label="gini = 0.0\nsamples = 3\nvalue = [3, 0]\nclass = <=50K", fillcolor="#e58139"] ;
614 -> 615 ;
616 [label="gini = 0.0\nsamples = 1\nvalue = [0, 1]\nclass = >50K", fillcolor="#399de5"] ;
614 -> 616 ;
617 [label="gini = 0.0\nsamples = 3\nvalue = [0, 3]\nclass = >50K", fillcolor="#399de5"] ;
611 -> 617 ;
618 [label="gini = 0.0\nsamples = 7\nvalue = [7, 0]\nclass = <=50K", fillcolor="#e58139"] ;
592 -> 618 ;
619 [label="gini = 0.0\nsamples = 1\nvalue = [0, 1]\nclass = >50K", fillcolor="#399de5"] ;
523 -> 619 ;
620 [label="gini = 0.0\nsamples = 6\nvalue = [6, 0]\nclass = <=50K", fillcolor="#e58139"] ;
522 -> 620 ;
621 [label="fnlwgt <= 97029.5\ngini = 0.21\nsamples = 42\nvalue = [37, 5]\nclass = <=50K", fillcolor="#e99254"] ;
447 -> 621 ;
622 [label="gini = 0.0\nsamples = 1\nvalue = [0, 1]\nclass = >50K", fillcolor="#399de5"] ;
621 -> 622 ;
623 [label="hours.per.week <= 25.0\ngini = 0.176\nsamples = 41\nvalue = [37, 4]\nclass = <=50K", fillcolor="#e88f4e"] ;
621 -> 623 ;
624 [label="age <= 32.5\ngini = 0.5\nsamples = 2\nvalue = [1, 1]\nclass = <=50K", fillcolor="#ffffff"] ;
623 -> 624 ;
625 [label="gini = 0.0\nsamples = 1\nvalue = [0, 1]\nclass = >50K", fillcolor="#399de5"] ;
624 -> 625 ;
626 [label="gini = 0.0\nsamples = 1\nvalue = [1, 0]\nclass = <=50K", fillcolor="#e58139"] ;
624 -> 626 ;
627 [label="fnlwgt <= 172973.5\ngini = 0.142\nsamples = 39\nvalue = [36, 3]\nclass = <=50K", fillcolor="#e78c49"] ;
623 -> 627 ;
628 [label="fnlwgt <= 169283.5\ngini = 0.305\nsamples = 16\nvalue = [13, 3]\nclass = <=50K", fillcolor="#eb9e67"] ;
627 -> 628 ;
629 [label="hours.per.week <= 52.5\ngini = 0.231\nsamples = 15\nvalue = [13, 2]\nclass = <=50K", fillcolor="#e99457"] ;
628 -> 629 ;
630 [label="age <= 31.0\ngini = 0.142\nsamples = 13\nvalue = [12, 1]\nclass = <=50K", fillcolor="#e78c49"] ;
629 -> 630 ;
631 [label="hours.per.week <= 42.5\ngini = 0.444\nsamples = 3\nvalue = [2, 1]\nclass = <=50K", fillcolor="#f2c09c"] ;
630 -> 631 ;
632 [label="gini = 0.0\nsamples = 1\nvalue = [0, 1]\nclass = >50K", fillcolor="#399de5"] ;
631 -> 632 ;
633 [label="gini = 0.0\nsamples = 2\nvalue = [2, 0]\nclass = <=50K", fillcolor="#e58139"] ;
631 -> 633 ;
634 [label="gini = 0.0\nsamples = 10\nvalue = [10, 0]\nclass = <=50K", fillcolor="#e58139"] ;
630 -> 634 ;
635 [label="hours.per.week <= 57.5\ngini = 0.5\nsamples = 2\nvalue = [1, 1]\nclass = <=50K", fillcolor="#ffffff"] ;
629 -> 635 ;
636 [label="gini = 0.0\nsamples = 1\nvalue = [0, 1]\nclass = >50K", fillcolor="#399de5"] ;
635 -> 636 ;
637 [label="gini = 0.0\nsamples = 1\nvalue = [1, 0]\nclass = <=50K", fillcolor="#e58139"] ;
635 -> 637 ;
638 [label="gini = 0.0\nsamples = 1\nvalue = [0, 1]\nclass = >50K", fillcolor="#399de5"] ;
628 -> 638 ;
639 [label="gini = 0.0\nsamples = 23\nvalue = [23, 0]\nclass = <=50K", fillcolor="#e58139"] ;
627 -> 639 ;
640 [label="gini = 0.0\nsamples = 1\nvalue = [0, 1]\nclass = >50K", fillcolor="#399de5"] ;
446 -> 640 ;
641 [label="gini = 0.0\nsamples = 10\nvalue = [10, 0]\nclass = <=50K", fillcolor="#e58139"] ;
445 -> 641 ;
642 [label="native.country <= 0.5\ngini = 0.465\nsamples = 38\nvalue = [24, 14]\nclass = <=50K", fillcolor="#f4caac"] ;
342 -> 642 ;
643 [label="gini = 0.0\nsamples = 3\nvalue = [0, 3]\nclass = >50K", fillcolor="#399de5"] ;
642 -> 643 ;
644 [label="hours.per.week <= 65.5\ngini = 0.431\nsamples = 35\nvalue = [24, 11]\nclass = <=50K", fillcolor="#f1bb94"] ;
642 -> 644 ;
645 [label="workclass <= 3.5\ngini = 0.496\nsamples = 11\nvalue = [5, 6]\nclass = >50K", fillcolor="#deeffb"] ;
644 -> 645 ;
646 [label="fnlwgt <= 111558.0\ngini = 0.408\nsamples = 7\nvalue = [5, 2]\nclass = <=50K", fillcolor="#efb388"] ;
645 -> 646 ;
647 [label="gini = 0.0\nsamples = 1\nvalue = [0, 1]\nclass = >50K", fillcolor="#399de5"] ;
646 -> 647 ;
648 [label="age <= 30.5\ngini = 0.278\nsamples = 6\nvalue = [5, 1]\nclass = <=50K", fillcolor="#ea9a61"] ;
646 -> 648 ;
649 [label="age <= 29.5\ngini = 0.5\nsamples = 2\nvalue = [1, 1]\nclass = <=50K", fillcolor="#ffffff"] ;
648 -> 649 ;
650 [label="gini = 0.0\nsamples = 1\nvalue = [1, 0]\nclass = <=50K", fillcolor="#e58139"] ;
649 -> 650 ;
651 [label="gini = 0.0\nsamples = 1\nvalue = [0, 1]\nclass = >50K", fillcolor="#399de5"] ;
649 -> 651 ;
652 [label="gini = 0.0\nsamples = 4\nvalue = [4, 0]\nclass = <=50K", fillcolor="#e58139"] ;
648 -> 652 ;
653 [label="gini = 0.0\nsamples = 4\nvalue = [0, 4]\nclass = >50K", fillcolor="#399de5"] ;
645 -> 653 ;
654 [label="workclass <= 2.0\ngini = 0.33\nsamples = 24\nvalue = [19, 5]\nclass = <=50K", fillcolor="#eca26d"] ;
644 -> 654 ;
655 [label="gini = 0.0\nsamples = 1\nvalue = [0, 1]\nclass = >50K", fillcolor="#399de5"] ;
654 -> 655 ;
656 [label="hours.per.week <= 77.5\ngini = 0.287\nsamples = 23\nvalue = [19, 4]\nclass = <=50K", fillcolor="#ea9c63"] ;
654 -> 656 ;
657 [label="fnlwgt <= 41535.0\ngini = 0.142\nsamples = 13\nvalue = [12, 1]\nclass = <=50K", fillcolor="#e78c49"] ;
656 -> 657 ;
658 [label="gini = 0.0\nsamples = 1\nvalue = [0, 1]\nclass = >50K", fillcolor="#399de5"] ;
657 -> 658 ;
659 [label="gini = 0.0\nsamples = 12\nvalue = [12, 0]\nclass = <=50K", fillcolor="#e58139"] ;
657 -> 659 ;
660 [label="hours.per.week <= 87.0\ngini = 0.42\nsamples = 10\nvalue = [7, 3]\nclass = <=50K", fillcolor="#f0b78e"] ;
656 -> 660 ;
661 [label="age <= 33.5\ngini = 0.48\nsamples = 5\nvalue = [2, 3]\nclass = >50K", fillcolor="#bddef6"] ;
660 -> 661 ;
662 [label="gini = 0.0\nsamples = 2\nvalue = [0, 2]\nclass = >50K", fillcolor="#399de5"] ;
661 -> 662 ;
663 [label="age <= 34.5\ngini = 0.444\nsamples = 3\nvalue = [2, 1]\nclass = <=50K", fillcolor="#f2c09c"] ;
661 -> 663 ;
664 [label="gini = 0.0\nsamples = 2\nvalue = [2, 0]\nclass = <=50K", fillcolor="#e58139"] ;
663 -> 664 ;
665 [label="gini = 0.0\nsamples = 1\nvalue = [0, 1]\nclass = >50K", fillcolor="#399de5"] ;
663 -> 665 ;
666 [label="gini = 0.0\nsamples = 5\nvalue = [5, 0]\nclass = <=50K", fillcolor="#e58139"] ;
660 -> 666 ;
667 [label="fnlwgt <= 176927.0\ngini = 0.416\nsamples = 531\nvalue = [374, 157]\nclass = <=50K", fillcolor="#f0b68c"] ;
341 -> 667 ;
668 [label="fnlwgt <= 27148.5\ngini = 0.36\nsamples = 255\nvalue = [195, 60]\nclass = <=50K", fillcolor="#eda876"] ;
667 -> 668 ;
669 [label="occupation <= 11.5\ngini = 0.32\nsamples = 5\nvalue = [1, 4]\nclass = >50K", fillcolor="#6ab6ec"] ;
668 -> 669 ;
670 [label="gini = 0.0\nsamples = 3\nvalue = [0, 3]\nclass = >50K", fillcolor="#399de5"] ;
669 -> 670 ;
671 [label="fnlwgt <= 25752.0\ngini = 0.5\nsamples = 2\nvalue = [1, 1]\nclass = <=50K", fillcolor="#ffffff"] ;
669 -> 671 ;
672 [label="gini = 0.0\nsamples = 1\nvalue = [1, 0]\nclass = <=50K", fillcolor="#e58139"] ;
671 -> 672 ;
673 [label="gini = 0.0\nsamples = 1\nvalue = [0, 1]\nclass = >50K", fillcolor="#399de5"] ;
671 -> 673 ;
674 [label="workclass <= 0.5\ngini = 0.348\nsamples = 250\nvalue = [194, 56]\nclass = <=50K", fillcolor="#eda572"] ;
668 -> 674 ;
675 [label="age <= 30.0\ngini = 0.444\nsamples = 3\nvalue = [1, 2]\nclass = >50K", fillcolor="#9ccef2"] ;
674 -> 675 ;
676 [label="gini = 0.0\nsamples = 2\nvalue = [0, 2]\nclass = >50K", fillcolor="#399de5"] ;
675 -> 676 ;
677 [label="gini = 0.0\nsamples = 1\nvalue = [1, 0]\nclass = <=50K", fillcolor="#e58139"] ;
675 -> 677 ;
678 [label="fnlwgt <= 83532.0\ngini = 0.342\nsamples = 247\nvalue = [193, 54]\nclass = <=50K", fillcolor="#eca470"] ;
674 -> 678 ;
679 [label="fnlwgt <= 36659.0\ngini = 0.255\nsamples = 80\nvalue = [68, 12]\nclass = <=50K", fillcolor="#ea975c"] ;
678 -> 679 ;
680 [label="fnlwgt <= 33547.5\ngini = 0.454\nsamples = 23\nvalue = [15, 8]\nclass = <=50K", fillcolor="#f3c4a3"] ;
679 -> 680 ;
681 [label="workclass <= 4.5\ngini = 0.18\nsamples = 10\nvalue = [9, 1]\nclass = <=50K", fillcolor="#e88f4f"] ;
680 -> 681 ;
682 [label="gini = 0.0\nsamples = 7\nvalue = [7, 0]\nclass = <=50K", fillcolor="#e58139"] ;
681 -> 682 ;
683 [label="age <= 33.0\ngini = 0.444\nsamples = 3\nvalue = [2, 1]\nclass = <=50K", fillcolor="#f2c09c"] ;
681 -> 683 ;
684 [label="gini = 0.0\nsamples = 2\nvalue = [2, 0]\nclass = <=50K", fillcolor="#e58139"] ;
683 -> 684 ;
685 [label="gini = 0.0\nsamples = 1\nvalue = [0, 1]\nclass = >50K", fillcolor="#399de5"] ;
683 -> 685 ;
686 [label="fnlwgt <= 35619.5\ngini = 0.497\nsamples = 13\nvalue = [6, 7]\nclass = >50K", fillcolor="#e3f1fb"] ;
680 -> 686 ;
687 [label="age <= 27.5\ngini = 0.496\nsamples = 11\nvalue = [6, 5]\nclass = <=50K", fillcolor="#fbeade"] ;
686 -> 687 ;
688 [label="gini = 0.0\nsamples = 1\nvalue = [0, 1]\nclass = >50K", fillcolor="#399de5"] ;
687 -> 688 ;
689 [label="age <= 30.0\ngini = 0.48\nsamples = 10\nvalue = [6, 4]\nclass = <=50K", fillcolor="#f6d5bd"] ;
687 -> 689 ;
690 [label="gini = 0.0\nsamples = 2\nvalue = [2, 0]\nclass = <=50K", fillcolor="#e58139"] ;
689 -> 690 ;
691 [label="hours.per.week <= 47.5\ngini = 0.5\nsamples = 8\nvalue = [4, 4]\nclass = <=50K", fillcolor="#ffffff"] ;
689 -> 691 ;
692 [label="workclass <= 2.0\ngini = 0.444\nsamples = 6\nvalue = [4, 2]\nclass = <=50K", fillcolor="#f2c09c"] ;
691 -> 692 ;
693 [label="gini = 0.0\nsamples = 1\nvalue = [0, 1]\nclass = >50K", fillcolor="#399de5"] ;
692 -> 693 ;
694 [label="occupation <= 2.5\ngini = 0.32\nsamples = 5\nvalue = [4, 1]\nclass = <=50K", fillcolor="#eca06a"] ;
692 -> 694 ;
695 [label="fnlwgt <= 34291.5\ngini = 0.5\nsamples = 2\nvalue = [1, 1]\nclass = <=50K", fillcolor="#ffffff"] ;
694 -> 695 ;
696 [label="gini = 0.0\nsamples = 1\nvalue = [1, 0]\nclass = <=50K", fillcolor="#e58139"] ;
695 -> 696 ;
697 [label="gini = 0.0\nsamples = 1\nvalue = [0, 1]\nclass = >50K", fillcolor="#399de5"] ;
695 -> 697 ;
698 [label="gini = 0.0\nsamples = 3\nvalue = [3, 0]\nclass = <=50K", fillcolor="#e58139"] ;
694 -> 698 ;
699 [label="gini = 0.0\nsamples = 2\nvalue = [0, 2]\nclass = >50K", fillcolor="#399de5"] ;
691 -> 699 ;
700 [label="gini = 0.0\nsamples = 2\nvalue = [0, 2]\nclass = >50K", fillcolor="#399de5"] ;
686 -> 700 ;
701 [label="fnlwgt <= 55512.5\ngini = 0.131\nsamples = 57\nvalue = [53, 4]\nclass = <=50K", fillcolor="#e78b48"] ;
679 -> 701 ;
702 [label="fnlwgt <= 53403.5\ngini = 0.231\nsamples = 30\nvalue = [26, 4]\nclass = <=50K", fillcolor="#e99457"] ;
701 -> 702 ;
703 [label="native.country <= 0.5\ngini = 0.137\nsamples = 27\nvalue = [25, 2]\nclass = <=50K", fillcolor="#e78b49"] ;
702 -> 703 ;
704 [label="gini = 0.0\nsamples = 1\nvalue = [0, 1]\nclass = >50K", fillcolor="#399de5"] ;
703 -> 704 ;
705 [label="age <= 34.5\ngini = 0.074\nsamples = 26\nvalue = [25, 1]\nclass = <=50K", fillcolor="#e68641"] ;
703 -> 705 ;
706 [label="gini = 0.0\nsamples = 21\nvalue = [21, 0]\nclass = <=50K", fillcolor="#e58139"] ;
705 -> 706 ;
707 [label="occupation <= 6.5\ngini = 0.32\nsamples = 5\nvalue = [4, 1]\nclass = <=50K", fillcolor="#eca06a"] ;
705 -> 707 ;
708 [label="gini = 0.0\nsamples = 3\nvalue = [3, 0]\nclass = <=50K", fillcolor="#e58139"] ;
707 -> 708 ;
709 [label="workclass <= 2.0\ngini = 0.5\nsamples = 2\nvalue = [1, 1]\nclass = <=50K", fillcolor="#ffffff"] ;
707 -> 709 ;
710 [label="gini = 0.0\nsamples = 1\nvalue = [1, 0]\nclass = <=50K", fillcolor="#e58139"] ;
709 -> 710 ;
711 [label="gini = 0.0\nsamples = 1\nvalue = [0, 1]\nclass = >50K", fillcolor="#399de5"] ;
709 -> 711 ;
712 [label="fnlwgt <= 54021.0\ngini = 0.444\nsamples = 3\nvalue = [1, 2]\nclass = >50K", fillcolor="#9ccef2"] ;
702 -> 712 ;
713 [label="gini = 0.0\nsamples = 1\nvalue = [0, 1]\nclass = >50K", fillcolor="#399de5"] ;
712 -> 713 ;
714 [label="fnlwgt <= 54892.0\ngini = 0.5\nsamples = 2\nvalue = [1, 1]\nclass = <=50K", fillcolor="#ffffff"] ;
712 -> 714 ;
715 [label="gini = 0.0\nsamples = 1\nvalue = [1, 0]\nclass = <=50K", fillcolor="#e58139"] ;
714 -> 715 ;
716 [label="gini = 0.0\nsamples = 1\nvalue = [0, 1]\nclass = >50K", fillcolor="#399de5"] ;
714 -> 716 ;
717 [label="gini = 0.0\nsamples = 27\nvalue = [27, 0]\nclass = <=50K", fillcolor="#e58139"] ;
701 -> 717 ;
718 [label="fnlwgt <= 87328.5\ngini = 0.376\nsamples = 167\nvalue = [125, 42]\nclass = <=50K", fillcolor="#eeab7c"] ;
678 -> 718 ;
719 [label="gini = 0.0\nsamples = 3\nvalue = [0, 3]\nclass = >50K", fillcolor="#399de5"] ;
718 -> 719 ;
720 [label="hours.per.week <= 47.0\ngini = 0.363\nsamples = 164\nvalue = [125, 39]\nclass = <=50K", fillcolor="#eda877"] ;
718 -> 720 ;
721 [label="fnlwgt <= 155466.0\ngini = 0.313\nsamples = 108\nvalue = [87, 21]\nclass = <=50K", fillcolor="#eb9f69"] ;
720 -> 721 ;
722 [label="fnlwgt <= 155012.5\ngini = 0.356\nsamples = 82\nvalue = [63, 19]\nclass = <=50K", fillcolor="#eda775"] ;
721 -> 722 ;
723 [label="occupation <= 2.5\ngini = 0.346\nsamples = 81\nvalue = [63, 18]\nclass = <=50K", fillcolor="#eca572"] ;
722 -> 723 ;
724 [label="race <= 0.5\ngini = 0.188\nsamples = 19\nvalue = [17, 2]\nclass = <=50K", fillcolor="#e89050"] ;
723 -> 724 ;
725 [label="gini = 0.0\nsamples = 1\nvalue = [0, 1]\nclass = >50K", fillcolor="#399de5"] ;
724 -> 725 ;
726 [label="capital.loss <= 742.5\ngini = 0.105\nsamples = 18\nvalue = [17, 1]\nclass = <=50K", fillcolor="#e78845"] ;
724 -> 726 ;
727 [label="gini = 0.0\nsamples = 17\nvalue = [17, 0]\nclass = <=50K", fillcolor="#e58139"] ;
726 -> 727 ;
728 [label="gini = 0.0\nsamples = 1\nvalue = [0, 1]\nclass = >50K", fillcolor="#399de5"] ;
726 -> 728 ;
729 [label="education.num <= 10.5\ngini = 0.383\nsamples = 62\nvalue = [46, 16]\nclass = <=50K", fillcolor="#eead7e"] ;
723 -> 729 ;
730 [label="age <= 33.5\ngini = 0.32\nsamples = 45\nvalue = [36, 9]\nclass = <=50K", fillcolor="#eca06a"] ;
729 -> 730 ;
731 [label="fnlwgt <= 113453.5\ngini = 0.225\nsamples = 31\nvalue = [27, 4]\nclass = <=50K", fillcolor="#e99456"] ;
730 -> 731 ;
732 [label="gini = 0.0\nsamples = 10\nvalue = [10, 0]\nclass = <=50K", fillcolor="#e58139"] ;
731 -> 732 ;
733 [label="fnlwgt <= 113690.5\ngini = 0.308\nsamples = 21\nvalue = [17, 4]\nclass = <=50K", fillcolor="#eb9f68"] ;
731 -> 733 ;
734 [label="gini = 0.0\nsamples = 1\nvalue = [0, 1]\nclass = >50K", fillcolor="#399de5"] ;
733 -> 734 ;
735 [label="hours.per.week <= 39.0\ngini = 0.255\nsamples = 20\nvalue = [17, 3]\nclass = <=50K", fillcolor="#ea975c"] ;
733 -> 735 ;
736 [label="gini = 0.0\nsamples = 1\nvalue = [0, 1]\nclass = >50K", fillcolor="#399de5"] ;
735 -> 736 ;
737 [label="fnlwgt <= 132643.5\ngini = 0.188\nsamples = 19\nvalue = [17, 2]\nclass = <=50K", fillcolor="#e89050"] ;
735 -> 737 ;
738 [label="gini = 0.0\nsamples = 9\nvalue = [9, 0]\nclass = <=50K", fillcolor="#e58139"] ;
737 -> 738 ;
739 [label="fnlwgt <= 134881.0\ngini = 0.32\nsamples = 10\nvalue = [8, 2]\nclass = <=50K", fillcolor="#eca06a"] ;
737 -> 739 ;
740 [label="gini = 0.0\nsamples = 1\nvalue = [0, 1]\nclass = >50K", fillcolor="#399de5"] ;
739 -> 740 ;
741 [label="occupation <= 10.5\ngini = 0.198\nsamples = 9\nvalue = [8, 1]\nclass = <=50K", fillcolor="#e89152"] ;
739 -> 741 ;
742 [label="gini = 0.0\nsamples = 6\nvalue = [6, 0]\nclass = <=50K", fillcolor="#e58139"] ;
741 -> 742 ;
743 [label="fnlwgt <= 146901.5\ngini = 0.444\nsamples = 3\nvalue = [2, 1]\nclass = <=50K", fillcolor="#f2c09c"] ;
741 -> 743 ;
744 [label="gini = 0.0\nsamples = 2\nvalue = [2, 0]\nclass = <=50K", fillcolor="#e58139"] ;
743 -> 744 ;
745 [label="gini = 0.0\nsamples = 1\nvalue = [0, 1]\nclass = >50K", fillcolor="#399de5"] ;
743 -> 745 ;
746 [label="occupation <= 4.0\ngini = 0.459\nsamples = 14\nvalue = [9, 5]\nclass = <=50K", fillcolor="#f3c7a7"] ;
730 -> 746 ;
747 [label="hours.per.week <= 42.5\ngini = 0.375\nsamples = 4\nvalue = [1, 3]\nclass = >50K", fillcolor="#7bbeee"] ;
746 -> 747 ;
748 [label="gini = 0.0\nsamples = 3\nvalue = [0, 3]\nclass = >50K", fillcolor="#399de5"] ;
747 -> 748 ;
749 [label="gini = 0.0\nsamples = 1\nvalue = [1, 0]\nclass = <=50K", fillcolor="#e58139"] ;
747 -> 749 ;
750 [label="fnlwgt <= 115257.5\ngini = 0.32\nsamples = 10\nvalue = [8, 2]\nclass = <=50K", fillcolor="#eca06a"] ;
746 -> 750 ;
751 [label="fnlwgt <= 101625.0\ngini = 0.5\nsamples = 4\nvalue = [2, 2]\nclass = <=50K", fillcolor="#ffffff"] ;
750 -> 751 ;
752 [label="gini = 0.0\nsamples = 1\nvalue = [1, 0]\nclass = <=50K", fillcolor="#e58139"] ;
751 -> 752 ;
753 [label="age <= 34.5\ngini = 0.444\nsamples = 3\nvalue = [1, 2]\nclass = >50K", fillcolor="#9ccef2"] ;
751 -> 753 ;
754 [label="gini = 0.0\nsamples = 2\nvalue = [0, 2]\nclass = >50K", fillcolor="#399de5"] ;
753 -> 754 ;
755 [label="gini = 0.0\nsamples = 1\nvalue = [1, 0]\nclass = <=50K", fillcolor="#e58139"] ;
753 -> 755 ;
756 [label="gini = 0.0\nsamples = 6\nvalue = [6, 0]\nclass = <=50K", fillcolor="#e58139"] ;
750 -> 756 ;
757 [label="fnlwgt <= 140919.5\ngini = 0.484\nsamples = 17\nvalue = [10, 7]\nclass = <=50K", fillcolor="#f7d9c4"] ;
729 -> 757 ;
758 [label="age <= 28.5\ngini = 0.498\nsamples = 15\nvalue = [8, 7]\nclass = <=50K", fillcolor="#fcefe6"] ;
757 -> 758 ;
759 [label="gini = 0.0\nsamples = 2\nvalue = [2, 0]\nclass = <=50K", fillcolor="#e58139"] ;
758 -> 759 ;
760 [label="fnlwgt <= 116016.0\ngini = 0.497\nsamples = 13\nvalue = [6, 7]\nclass = >50K", fillcolor="#e3f1fb"] ;
758 -> 760 ;
761 [label="fnlwgt <= 106186.0\ngini = 0.469\nsamples = 8\nvalue = [5, 3]\nclass = <=50K", fillcolor="#f5cdb0"] ;
760 -> 761 ;
762 [label="occupation <= 6.0\ngini = 0.48\nsamples = 5\nvalue = [2, 3]\nclass = >50K", fillcolor="#bddef6"] ;
761 -> 762 ;
763 [label="gini = 0.0\nsamples = 1\nvalue = [1, 0]\nclass = <=50K", fillcolor="#e58139"] ;
762 -> 763 ;
764 [label="occupation <= 12.5\ngini = 0.375\nsamples = 4\nvalue = [1, 3]\nclass = >50K", fillcolor="#7bbeee"] ;
762 -> 764 ;
765 [label="gini = 0.0\nsamples = 2\nvalue = [0, 2]\nclass = >50K", fillcolor="#399de5"] ;
764 -> 765 ;
766 [label="hours.per.week <= 42.5\ngini = 0.5\nsamples = 2\nvalue = [1, 1]\nclass = <=50K", fillcolor="#ffffff"] ;
764 -> 766 ;
767 [label="gini = 0.0\nsamples = 1\nvalue = [1, 0]\nclass = <=50K", fillcolor="#e58139"] ;
766 -> 767 ;
768 [label="gini = 0.0\nsamples = 1\nvalue = [0, 1]\nclass = >50K", fillcolor="#399de5"] ;
766 -> 768 ;
769 [label="gini = 0.0\nsamples = 3\nvalue = [3, 0]\nclass = <=50K", fillcolor="#e58139"] ;
761 -> 769 ;
770 [label="age <= 33.5\ngini = 0.32\nsamples = 5\nvalue = [1, 4]\nclass = >50K", fillcolor="#6ab6ec"] ;
760 -> 770 ;
771 [label="gini = 0.0\nsamples = 3\nvalue = [0, 3]\nclass = >50K", fillcolor="#399de5"] ;
770 -> 771 ;
772 [label="fnlwgt <= 126723.5\ngini = 0.5\nsamples = 2\nvalue = [1, 1]\nclass = <=50K", fillcolor="#ffffff"] ;
770 -> 772 ;
773 [label="gini = 0.0\nsamples = 1\nvalue = [0, 1]\nclass = >50K", fillcolor="#399de5"] ;
772 -> 773 ;
774 [label="gini = 0.0\nsamples = 1\nvalue = [1, 0]\nclass = <=50K", fillcolor="#e58139"] ;
772 -> 774 ;
775 [label="gini = 0.0\nsamples = 2\nvalue = [2, 0]\nclass = <=50K", fillcolor="#e58139"] ;
757 -> 775 ;
776 [label="gini = 0.0\nsamples = 1\nvalue = [0, 1]\nclass = >50K", fillcolor="#399de5"] ;
722 -> 776 ;
777 [label="age <= 31.5\ngini = 0.142\nsamples = 26\nvalue = [24, 2]\nclass = <=50K", fillcolor="#e78c49"] ;
721 -> 777 ;
778 [label="gini = 0.0\nsamples = 10\nvalue = [10, 0]\nclass = <=50K", fillcolor="#e58139"] ;
777 -> 778 ;
779 [label="fnlwgt <= 159661.0\ngini = 0.219\nsamples = 16\nvalue = [14, 2]\nclass = <=50K", fillcolor="#e99355"] ;
777 -> 779 ;
780 [label="gini = 0.0\nsamples = 7\nvalue = [7, 0]\nclass = <=50K", fillcolor="#e58139"] ;
779 -> 780 ;
781 [label="fnlwgt <= 161189.5\ngini = 0.346\nsamples = 9\nvalue = [7, 2]\nclass = <=50K", fillcolor="#eca572"] ;
779 -> 781 ;
782 [label="gini = 0.0\nsamples = 1\nvalue = [0, 1]\nclass = >50K", fillcolor="#399de5"] ;
781 -> 782 ;
783 [label="age <= 32.5\ngini = 0.219\nsamples = 8\nvalue = [7, 1]\nclass = <=50K", fillcolor="#e99355"] ;
781 -> 783 ;
784 [label="gini = 0.0\nsamples = 1\nvalue = [0, 1]\nclass = >50K", fillcolor="#399de5"] ;
783 -> 784 ;
785 [label="gini = 0.0\nsamples = 7\nvalue = [7, 0]\nclass = <=50K", fillcolor="#e58139"] ;
783 -> 785 ;
786 [label="occupation <= 11.5\ngini = 0.436\nsamples = 56\nvalue = [38, 18]\nclass = <=50K", fillcolor="#f1bd97"] ;
720 -> 786 ;
787 [label="education.num <= 10.5\ngini = 0.411\nsamples = 52\nvalue = [37, 15]\nclass = <=50K", fillcolor="#f0b489"] ;
786 -> 787 ;
788 [label="hours.per.week <= 67.5\ngini = 0.463\nsamples = 33\nvalue = [21, 12]\nclass = <=50K", fillcolor="#f4c9aa"] ;
787 -> 788 ;
789 [label="hours.per.week <= 63.0\ngini = 0.485\nsamples = 29\nvalue = [17, 12]\nclass = <=50K", fillcolor="#f7dac5"] ;
788 -> 789 ;
790 [label="occupation <= 8.0\ngini = 0.466\nsamples = 27\nvalue = [17, 10]\nclass = <=50K", fillcolor="#f4cbad"] ;
789 -> 790 ;
791 [label="fnlwgt <= 156019.0\ngini = 0.401\nsamples = 18\nvalue = [13, 5]\nclass = <=50K", fillcolor="#efb185"] ;
790 -> 791 ;
792 [label="hours.per.week <= 52.0\ngini = 0.32\nsamples = 15\nvalue = [12, 3]\nclass = <=50K", fillcolor="#eca06a"] ;
791 -> 792 ;
793 [label="fnlwgt <= 114008.5\ngini = 0.5\nsamples = 6\nvalue = [3, 3]\nclass = <=50K", fillcolor="#ffffff"] ;
792 -> 793 ;
794 [label="gini = 0.0\nsamples = 2\nvalue = [2, 0]\nclass = <=50K", fillcolor="#e58139"] ;
793 -> 794 ;
795 [label="workclass <= 2.0\ngini = 0.375\nsamples = 4\nvalue = [1, 3]\nclass = >50K", fillcolor="#7bbeee"] ;
793 -> 795 ;
796 [label="gini = 0.0\nsamples = 1\nvalue = [1, 0]\nclass = <=50K", fillcolor="#e58139"] ;
795 -> 796 ;
797 [label="gini = 0.0\nsamples = 3\nvalue = [0, 3]\nclass = >50K", fillcolor="#399de5"] ;
795 -> 797 ;
798 [label="gini = 0.0\nsamples = 9\nvalue = [9, 0]\nclass = <=50K", fillcolor="#e58139"] ;
792 -> 798 ;
799 [label="hours.per.week <= 55.0\ngini = 0.444\nsamples = 3\nvalue = [1, 2]\nclass = >50K", fillcolor="#9ccef2"] ;
791 -> 799 ;
800 [label="gini = 0.0\nsamples = 1\nvalue = [1, 0]\nclass = <=50K", fillcolor="#e58139"] ;
799 -> 800 ;
801 [label="gini = 0.0\nsamples = 2\nvalue = [0, 2]\nclass = >50K", fillcolor="#399de5"] ;
799 -> 801 ;
802 [label="workclass <= 4.5\ngini = 0.494\nsamples = 9\nvalue = [4, 5]\nclass = >50K", fillcolor="#d7ebfa"] ;
790 -> 802 ;
803 [label="capital.gain <= 2193.0\ngini = 0.408\nsamples = 7\nvalue = [2, 5]\nclass = >50K", fillcolor="#88c4ef"] ;
802 -> 803 ;
804 [label="age <= 34.5\ngini = 0.278\nsamples = 6\nvalue = [1, 5]\nclass = >50K", fillcolor="#61b1ea"] ;
803 -> 804 ;
805 [label="gini = 0.0\nsamples = 4\nvalue = [0, 4]\nclass = >50K", fillcolor="#399de5"] ;
804 -> 805 ;
806 [label="workclass <= 3.5\ngini = 0.5\nsamples = 2\nvalue = [1, 1]\nclass = <=50K", fillcolor="#ffffff"] ;
804 -> 806 ;
807 [label="gini = 0.0\nsamples = 1\nvalue = [1, 0]\nclass = <=50K", fillcolor="#e58139"] ;
806 -> 807 ;
808 [label="gini = 0.0\nsamples = 1\nvalue = [0, 1]\nclass = >50K", fillcolor="#399de5"] ;
806 -> 808 ;
809 [label="gini = 0.0\nsamples = 1\nvalue = [1, 0]\nclass = <=50K", fillcolor="#e58139"] ;
803 -> 809 ;
810 [label="gini = 0.0\nsamples = 2\nvalue = [2, 0]\nclass = <=50K", fillcolor="#e58139"] ;
802 -> 810 ;
811 [label="gini = 0.0\nsamples = 2\nvalue = [0, 2]\nclass = >50K", fillcolor="#399de5"] ;
789 -> 811 ;
812 [label="gini = 0.0\nsamples = 4\nvalue = [4, 0]\nclass = <=50K", fillcolor="#e58139"] ;
788 -> 812 ;
813 [label="fnlwgt <= 122639.0\ngini = 0.266\nsamples = 19\nvalue = [16, 3]\nclass = <=50K", fillcolor="#ea995e"] ;
787 -> 813 ;
814 [label="gini = 0.0\nsamples = 9\nvalue = [9, 0]\nclass = <=50K", fillcolor="#e58139"] ;
813 -> 814 ;
815 [label="fnlwgt <= 133697.5\ngini = 0.42\nsamples = 10\nvalue = [7, 3]\nclass = <=50K", fillcolor="#f0b78e"] ;
813 -> 815 ;
816 [label="gini = 0.0\nsamples = 2\nvalue = [0, 2]\nclass = >50K", fillcolor="#399de5"] ;
815 -> 816 ;
817 [label="education <= 0.5\ngini = 0.219\nsamples = 8\nvalue = [7, 1]\nclass = <=50K", fillcolor="#e99355"] ;
815 -> 817 ;
818 [label="gini = 0.0\nsamples = 1\nvalue = [0, 1]\nclass = >50K", fillcolor="#399de5"] ;
817 -> 818 ;
819 [label="gini = 0.0\nsamples = 7\nvalue = [7, 0]\nclass = <=50K", fillcolor="#e58139"] ;
817 -> 819 ;
820 [label="occupation <= 12.5\ngini = 0.375\nsamples = 4\nvalue = [1, 3]\nclass = >50K", fillcolor="#7bbeee"] ;
786 -> 820 ;
821 [label="gini = 0.0\nsamples = 2\nvalue = [0, 2]\nclass = >50K", fillcolor="#399de5"] ;
820 -> 821 ;
822 [label="hours.per.week <= 58.0\ngini = 0.5\nsamples = 2\nvalue = [1, 1]\nclass = <=50K", fillcolor="#ffffff"] ;
820 -> 822 ;
823 [label="gini = 0.0\nsamples = 1\nvalue = [0, 1]\nclass = >50K", fillcolor="#399de5"] ;
822 -> 823 ;
824 [label="gini = 0.0\nsamples = 1\nvalue = [1, 0]\nclass = <=50K", fillcolor="#e58139"] ;
822 -> 824 ;
825 [label="hours.per.week <= 39.5\ngini = 0.456\nsamples = 276\nvalue = [179, 97]\nclass = <=50K", fillcolor="#f3c5a4"] ;
667 -> 825 ;
826 [label="occupation <= 2.5\ngini = 0.198\nsamples = 18\nvalue = [16, 2]\nclass = <=50K", fillcolor="#e89152"] ;
825 -> 826 ;
827 [label="hours.per.week <= 36.5\ngini = 0.444\nsamples = 3\nvalue = [1, 2]\nclass = >50K", fillcolor="#9ccef2"] ;
826 -> 827 ;
828 [label="gini = 0.0\nsamples = 2\nvalue = [0, 2]\nclass = >50K", fillcolor="#399de5"] ;
827 -> 828 ;
829 [label="gini = 0.0\nsamples = 1\nvalue = [1, 0]\nclass = <=50K", fillcolor="#e58139"] ;
827 -> 829 ;
830 [label="gini = 0.0\nsamples = 15\nvalue = [15, 0]\nclass = <=50K", fillcolor="#e58139"] ;
826 -> 830 ;
831 [label="race <= 0.5\ngini = 0.465\nsamples = 258\nvalue = [163, 95]\nclass = <=50K", fillcolor="#f4caac"] ;
825 -> 831 ;
832 [label="occupation <= 7.5\ngini = 0.495\nsamples = 31\nvalue = [14, 17]\nclass = >50K", fillcolor="#dceefa"] ;
831 -> 832 ;
833 [label="occupation <= 3.5\ngini = 0.488\nsamples = 19\nvalue = [11, 8]\nclass = <=50K", fillcolor="#f8ddc9"] ;
832 -> 833 ;
834 [label="fnlwgt <= 350317.5\ngini = 0.49\nsamples = 14\nvalue = [6, 8]\nclass = >50K", fillcolor="#cee6f8"] ;
833 -> 834 ;
835 [label="fnlwgt <= 216714.0\ngini = 0.496\nsamples = 11\nvalue = [6, 5]\nclass = <=50K", fillcolor="#fbeade"] ;
834 -> 835 ;
836 [label="occupation <= 2.5\ngini = 0.444\nsamples = 6\nvalue = [2, 4]\nclass = >50K", fillcolor="#9ccef2"] ;
835 -> 836 ;
837 [label="gini = 0.0\nsamples = 3\nvalue = [0, 3]\nclass = >50K", fillcolor="#399de5"] ;
836 -> 837 ;
838 [label="age <= 28.0\ngini = 0.444\nsamples = 3\nvalue = [2, 1]\nclass = <=50K", fillcolor="#f2c09c"] ;
836 -> 838 ;
839 [label="gini = 0.0\nsamples = 1\nvalue = [0, 1]\nclass = >50K", fillcolor="#399de5"] ;
838 -> 839 ;
840 [label="gini = 0.0\nsamples = 2\nvalue = [2, 0]\nclass = <=50K", fillcolor="#e58139"] ;
838 -> 840 ;
841 [label="education <= 4.5\ngini = 0.32\nsamples = 5\nvalue = [4, 1]\nclass = <=50K", fillcolor="#eca06a"] ;
835 -> 841 ;
842 [label="gini = 0.0\nsamples = 1\nvalue = [0, 1]\nclass = >50K", fillcolor="#399de5"] ;
841 -> 842 ;
843 [label="gini = 0.0\nsamples = 4\nvalue = [4, 0]\nclass = <=50K", fillcolor="#e58139"] ;
841 -> 843 ;
844 [label="gini = 0.0\nsamples = 3\nvalue = [0, 3]\nclass = >50K", fillcolor="#399de5"] ;
834 -> 844 ;
845 [label="gini = 0.0\nsamples = 5\nvalue = [5, 0]\nclass = <=50K", fillcolor="#e58139"] ;
833 -> 845 ;
846 [label="fnlwgt <= 342954.0\ngini = 0.375\nsamples = 12\nvalue = [3, 9]\nclass = >50K", fillcolor="#7bbeee"] ;
832 -> 846 ;
